digraph Tree {
node [shape=box] ;
0 [label="X[350] <= 0.488\nmse = 0.09\nsamples = 55000\nvalue = [[0.099]\n[0.112]\n[0.099]\n[0.103]\n[0.096]\n[0.091]\n[0.098]\n[0.104]\n[0.098]\n[0.099]]"] ;
1 [label="X[568] <= 0.002\nmse = 0.088\nsamples = 35350\nvalue = [[0.141]\n[0.014]\n[0.123]\n[0.032]\n[0.137]\n[0.082]\n[0.122]\n[0.148]\n[0.078]\n[0.122]]"] ;
0 -> 1 [labeldistance=2.5, labelangle=45, headlabel="True"] ;
2 [label="X[430] <= 0.002\nmse = 0.084\nsamples = 21753\nvalue = [[0.03]\n[0.015]\n[0.038]\n[0.034]\n[0.213]\n[0.069]\n[0.115]\n[0.232]\n[0.059]\n[0.193]]"] ;
1 -> 2 ;
3 [label="X[405] <= 0.065\nmse = 0.07\nsamples = 8687\nvalue = [[0.028]\n[0.038]\n[0.06]\n[0.044]\n[0.052]\n[0.052]\n[0.031]\n[0.52]\n[0.087]\n[0.09]]"] ;
2 -> 3 ;
4 [label="X[485] <= 0.037\nmse = 0.049\nsamples = 6246\nvalue = [[0.037]\n[0.013]\n[0.063]\n[0.015]\n[0.049]\n[0.014]\n[0.025]\n[0.706]\n[0.003]\n[0.074]]"] ;
3 -> 4 ;
5 [label="X[154] <= 0.002\nmse = 0.028\nsamples = 5077\nvalue = [[0.032]\n[0.016]\n[0.058]\n[0.017]\n[0.003]\n[0.012]\n[0.004]\n[0.844]\n[0.003]\n[0.01]]"] ;
4 -> 5 ;
6 [label="X[594] <= 0.084\nmse = 0.014\nsamples = 4594\nvalue = [[0.016]\n[0.011]\n[0.016]\n[0.008]\n[0.003]\n[0.005]\n[0.003]\n[0.927]\n[0.002]\n[0.01]]"] ;
5 -> 6 ;
7 [label="X[157] <= 0.002\nmse = 0.011\nsamples = 4513\nvalue = [[0.001]\n[0.011]\n[0.016]\n[0.007]\n[0.003]\n[0.004]\n[0.003]\n[0.943]\n[0.002]\n[0.01]]"] ;
6 -> 7 ;
8 [label="X[152] <= 0.033\nmse = 0.009\nsamples = 4460\nvalue = [[0.0]\n[0.004]\n[0.016]\n[0.007]\n[0.003]\n[0.002]\n[0.003]\n[0.954]\n[0.001]\n[0.01]]"] ;
7 -> 8 ;
9 [label="X[554] <= 0.014\nmse = 0.007\nsamples = 4402\nvalue = [[0.0]\n[0.004]\n[0.01]\n[0.006]\n[0.002]\n[0.002]\n[0.001]\n[0.963]\n[0.001]\n[0.01]]"] ;
8 -> 9 ;
10 [label="X[159] <= 0.045\nmse = 0.006\nsamples = 4356\nvalue = [[0.0]\n[0.004]\n[0.005]\n[0.005]\n[0.002]\n[0.001]\n[0.001]\n[0.97]\n[0.001]\n[0.01]]"] ;
9 -> 10 ;
11 [label="X[512] <= 0.467\nmse = 0.006\nsamples = 4346\nvalue = [[0.0]\n[0.002]\n[0.005]\n[0.005]\n[0.002]\n[0.001]\n[0.001]\n[0.972]\n[0.001]\n[0.01]]"] ;
10 -> 11 ;
12 [label="X[349] <= 0.667\nmse = 0.005\nsamples = 4331\nvalue = [[0.0]\n[0.002]\n[0.005]\n[0.005]\n[0.002]\n[0.001]\n[0.0]\n[0.975]\n[0.001]\n[0.009]]"] ;
11 -> 12 ;
13 [label="X[403] <= 0.841\nmse = 0.004\nsamples = 4293\nvalue = [[0.0]\n[0.002]\n[0.005]\n[0.005]\n[0.001]\n[0.001]\n[0.0]\n[0.979]\n[0.001]\n[0.006]]"] ;
12 -> 13 ;
14 [label="X[155] <= 0.233\nmse = 0.004\nsamples = 4285\nvalue = [[0.0]\n[0.002]\n[0.005]\n[0.005]\n[0.0]\n[0.0]\n[0.0]\n[0.981]\n[0.0]\n[0.005]]"] ;
13 -> 14 ;
15 [label="X[461] <= 0.951\nmse = 0.004\nsamples = 4280\nvalue = [[0.0]\n[0.001]\n[0.005]\n[0.005]\n[0.0]\n[0.0]\n[0.0]\n[0.982]\n[0.0]\n[0.005]]"] ;
14 -> 15 ;
16 [label="X[610] <= 0.555\nmse = 0.003\nsamples = 4208\nvalue = [[0.0]\n[0.001]\n[0.004]\n[0.002]\n[0.0]\n[0.0]\n[0.0]\n[0.986]\n[0.0]\n[0.005]]"] ;
15 -> 16 ;
17 [label="X[569] <= 0.649\nmse = 0.003\nsamples = 4205\nvalue = [[0.0]\n[0.001]\n[0.003]\n[0.002]\n[0.0]\n[0.0]\n[0.0]\n[0.987]\n[0.0]\n[0.005]]"] ;
16 -> 17 ;
18 [label="X[694] <= 0.161\nmse = 0.002\nsamples = 4198\nvalue = [[0.0]\n[0.001]\n[0.003]\n[0.002]\n[0.0]\n[0.0]\n[0.0]\n[0.988]\n[0.0]\n[0.005]]"] ;
17 -> 18 ;
19 [label="X[378] <= 0.869\nmse = 0.002\nsamples = 4195\nvalue = [[0.0]\n[0.001]\n[0.002]\n[0.002]\n[0.0]\n[0.0]\n[0.0]\n[0.988]\n[0.0]\n[0.005]]"] ;
18 -> 19 ;
20 [label="X[500] <= 0.004\nmse = 0.002\nsamples = 4190\nvalue = [[0.0]\n[0.001]\n[0.002]\n[0.002]\n[0.0]\n[0.0]\n[0.0]\n[0.989]\n[0.0]\n[0.005]]"] ;
19 -> 20 ;
21 [label="X[541] <= 0.886\nmse = 0.002\nsamples = 4182\nvalue = [[0.0]\n[0.001]\n[0.001]\n[0.002]\n[0.0]\n[0.0]\n[0.0]\n[0.99]\n[0.0]\n[0.005]]"] ;
20 -> 21 ;
22 [label="X[722] <= 0.571\nmse = 0.002\nsamples = 4181\nvalue = [[0.0]\n[0.001]\n[0.001]\n[0.002]\n[0.0]\n[0.0]\n[0.0]\n[0.99]\n[0.0]\n[0.005]]"] ;
21 -> 22 ;
23 [label="X[119] <= 0.478\nmse = 0.002\nsamples = 4180\nvalue = [[0.0]\n[0.001]\n[0.001]\n[0.002]\n[0.0]\n[0.0]\n[0.0]\n[0.99]\n[0.0]\n[0.005]]"] ;
22 -> 23 ;
24 [label="X[350] <= 0.006\nmse = 0.002\nsamples = 4179\nvalue = [[0.0]\n[0.001]\n[0.001]\n[0.002]\n[0.0]\n[0.0]\n[0.0]\n[0.99]\n[0.0]\n[0.005]]"] ;
23 -> 24 ;
25 [label="X[150] <= 0.982\nmse = 0.001\nsamples = 3810\nvalue = [[0.0]\n[0.001]\n[0.002]\n[0.001]\n[0.0]\n[0.0]\n[0.0]\n[0.994]\n[0.0]\n[0.002]]"] ;
24 -> 25 ;
26 [label="X[458] <= 0.629\nmse = 0.001\nsamples = 3808\nvalue = [[0.0]\n[0.001]\n[0.002]\n[0.001]\n[0.0]\n[0.0]\n[0.0]\n[0.994]\n[0.0]\n[0.002]]"] ;
25 -> 26 ;
27 [label="X[722] <= 0.114\nmse = 0.001\nsamples = 3806\nvalue = [[0.0]\n[0.001]\n[0.002]\n[0.001]\n[0.0]\n[0.0]\n[0.0]\n[0.995]\n[0.0]\n[0.001]]"] ;
26 -> 27 ;
28 [label="X[263] <= 0.02\nmse = 0.001\nsamples = 3803\nvalue = [[0.0]\n[0.001]\n[0.001]\n[0.001]\n[0.0]\n[0.0]\n[0.0]\n[0.995]\n[0.0]\n[0.001]]"] ;
27 -> 28 ;
29 [label="X[691] <= 0.394\nmse = 0.007\nsamples = 324\nvalue = [[0.0]\n[0.009]\n[0.012]\n[0.006]\n[0.0]\n[0.0]\n[0.0]\n[0.963]\n[0.003]\n[0.006]]"] ;
28 -> 29 ;
30 [label="X[607] <= 0.786\nmse = 0.006\nsamples = 321\nvalue = [[0.0]\n[0.009]\n[0.006]\n[0.006]\n[0.0]\n[0.0]\n[0.0]\n[0.969]\n[0.003]\n[0.006]]"] ;
29 -> 30 ;
31 [label="X[596] <= 0.398\nmse = 0.006\nsamples = 320\nvalue = [[0.0]\n[0.009]\n[0.003]\n[0.006]\n[0.0]\n[0.0]\n[0.0]\n[0.972]\n[0.003]\n[0.006]]"] ;
30 -> 31 ;
32 [label="X[255] <= 0.957\nmse = 0.005\nsamples = 319\nvalue = [[0.0]\n[0.009]\n[0.0]\n[0.006]\n[0.0]\n[0.0]\n[0.0]\n[0.975]\n[0.003]\n[0.006]]"] ;
31 -> 32 ;
33 [label="X[434] <= 0.976\nmse = 0.004\nsamples = 318\nvalue = [[0.0]\n[0.009]\n[0.0]\n[0.003]\n[0.0]\n[0.0]\n[0.0]\n[0.978]\n[0.003]\n[0.006]]"] ;
32 -> 33 ;
34 [label="X[578] <= 0.675\nmse = 0.003\nsamples = 311\nvalue = [[0.0]\n[0.003]\n[0.0]\n[0.003]\n[0.0]\n[0.0]\n[0.0]\n[0.984]\n[0.003]\n[0.006]]"] ;
33 -> 34 ;
35 [label="X[256] <= 0.8\nmse = 0.001\nsamples = 299\nvalue = [[0.0]\n[0.003]\n[0.0]\n[0.0]\n[0.0]\n[0.0]\n[0.0]\n[0.993]\n[0.0]\n[0.003]]"] ;
34 -> 35 ;
36 [label="X[265] <= 0.99\nmse = 0.001\nsamples = 297\nvalue = [[0.0]\n[0.0]\n[0.0]\n[0.0]\n[0.0]\n[0.0]\n[0.0]\n[0.997]\n[0.0]\n[0.003]]"] ;
35 -> 36 ;
37 [label="mse = 0.0\nsamples = 292\nvalue = [[0.0]\n[0.0]\n[0.0]\n[0.0]\n[0.0]\n[0.0]\n[0.0]\n[1.0]\n[0.0]\n[0.0]]"] ;
36 -> 37 ;
38 [label="X[214] <= 0.937\nmse = 0.032\nsamples = 5\nvalue = [[0.0]\n[0.0]\n[0.0]\n[0.0]\n[0.0]\n[0.0]\n[0.0]\n[0.8]\n[0.0]\n[0.2]]"] ;
36 -> 38 ;
39 [label="mse = 0.0\nsamples = 4\nvalue = [[0.0]\n[0.0]\n[0.0]\n[0.0]\n[0.0]\n[0.0]\n[0.0]\n[1.0]\n[0.0]\n[0.0]]"] ;
38 -> 39 ;
40 [label="mse = 0.0\nsamples = 1\nvalue = [[0.0]\n[0.0]\n[0.0]\n[0.0]\n[0.0]\n[0.0]\n[0.0]\n[0.0]\n[0.0]\n[1.0]]"] ;
38 -> 40 ;
41 [label="X[272] <= 0.233\nmse = 0.05\nsamples = 2\nvalue = [[0.0]\n[0.5]\n[0.0]\n[0.0]\n[0.0]\n[0.0]\n[0.0]\n[0.5]\n[0.0]\n[0.0]]"] ;
35 -> 41 ;
42 [label="mse = 0.0\nsamples = 1\nvalue = [[0.0]\n[0.0]\n[0.0]\n[0.0]\n[0.0]\n[0.0]\n[0.0]\n[1.0]\n[0.0]\n[0.0]]"] ;
41 -> 42 ;
43 [label="mse = 0.0\nsamples = 1\nvalue = [[0.0]\n[1.0]\n[0.0]\n[0.0]\n[0.0]\n[0.0]\n[0.0]\n[0.0]\n[0.0]\n[0.0]]"] ;
41 -> 43 ;
44 [label="X[656] <= 0.322\nmse = 0.042\nsamples = 12\nvalue = [[0.0]\n[0.0]\n[0.0]\n[0.083]\n[0.0]\n[0.0]\n[0.0]\n[0.75]\n[0.083]\n[0.083]]"] ;
34 -> 44 ;
45 [label="mse = 0.0\nsamples = 9\nvalue = [[0.0]\n[0.0]\n[0.0]\n[0.0]\n[0.0]\n[0.0]\n[0.0]\n[1.0]\n[0.0]\n[0.0]]"] ;
44 -> 45 ;
46 [label="X[177] <= 0.078\nmse = 0.067\nsamples = 3\nvalue = [[0.0]\n[0.0]\n[0.0]\n[0.333]\n[0.0]\n[0.0]\n[0.0]\n[0.0]\n[0.333]\n[0.333]]"] ;
44 -> 46 ;
47 [label="mse = 0.0\nsamples = 1\nvalue = [[0.0]\n[0.0]\n[0.0]\n[0.0]\n[0.0]\n[0.0]\n[0.0]\n[0.0]\n[1.0]\n[0.0]]"] ;
46 -> 47 ;
48 [label="X[629] <= 0.143\nmse = 0.05\nsamples = 2\nvalue = [[0.0]\n[0.0]\n[0.0]\n[0.5]\n[0.0]\n[0.0]\n[0.0]\n[0.0]\n[0.0]\n[0.5]]"] ;
46 -> 48 ;
49 [label="mse = 0.0\nsamples = 1\nvalue = [[0.0]\n[0.0]\n[0.0]\n[1.0]\n[0.0]\n[0.0]\n[0.0]\n[0.0]\n[0.0]\n[0.0]]"] ;
48 -> 49 ;
50 [label="mse = 0.0\nsamples = 1\nvalue = [[0.0]\n[0.0]\n[0.0]\n[0.0]\n[0.0]\n[0.0]\n[0.0]\n[0.0]\n[0.0]\n[1.0]]"] ;
48 -> 50 ;
51 [label="X[296] <= 0.602\nmse = 0.041\nsamples = 7\nvalue = [[0.0]\n[0.286]\n[0.0]\n[0.0]\n[0.0]\n[0.0]\n[0.0]\n[0.714]\n[0.0]\n[0.0]]"] ;
33 -> 51 ;
52 [label="mse = 0.0\nsamples = 5\nvalue = [[0.0]\n[0.0]\n[0.0]\n[0.0]\n[0.0]\n[0.0]\n[0.0]\n[1.0]\n[0.0]\n[0.0]]"] ;
51 -> 52 ;
53 [label="mse = 0.0\nsamples = 2\nvalue = [[0.0]\n[1.0]\n[0.0]\n[0.0]\n[0.0]\n[0.0]\n[0.0]\n[0.0]\n[0.0]\n[0.0]]"] ;
51 -> 53 ;
54 [label="mse = 0.0\nsamples = 1\nvalue = [[0.0]\n[0.0]\n[0.0]\n[1.0]\n[0.0]\n[0.0]\n[0.0]\n[0.0]\n[0.0]\n[0.0]]"] ;
32 -> 54 ;
55 [label="mse = 0.0\nsamples = 1\nvalue = [[0.0]\n[0.0]\n[1.0]\n[0.0]\n[0.0]\n[0.0]\n[0.0]\n[0.0]\n[0.0]\n[0.0]]"] ;
31 -> 55 ;
56 [label="mse = 0.0\nsamples = 1\nvalue = [[0.0]\n[0.0]\n[1.0]\n[0.0]\n[0.0]\n[0.0]\n[0.0]\n[0.0]\n[0.0]\n[0.0]]"] ;
30 -> 56 ;
57 [label="X[184] <= 0.041\nmse = 0.044\nsamples = 3\nvalue = [[0.0]\n[0.0]\n[0.667]\n[0.0]\n[0.0]\n[0.0]\n[0.0]\n[0.333]\n[0.0]\n[0.0]]"] ;
29 -> 57 ;
58 [label="mse = 0.0\nsamples = 1\nvalue = [[0.0]\n[0.0]\n[0.0]\n[0.0]\n[0.0]\n[0.0]\n[0.0]\n[1.0]\n[0.0]\n[0.0]]"] ;
57 -> 58 ;
59 [label="mse = 0.0\nsamples = 2\nvalue = [[0.0]\n[0.0]\n[1.0]\n[0.0]\n[0.0]\n[0.0]\n[0.0]\n[0.0]\n[0.0]\n[0.0]]"] ;
57 -> 59 ;
60 [label="X[184] <= 0.994\nmse = 0.0\nsamples = 3479\nvalue = [[0.0]\n[0.0]\n[0.0]\n[0.001]\n[0.0]\n[0.0]\n[0.0]\n[0.998]\n[0.0]\n[0.001]]"] ;
28 -> 60 ;
61 [label="X[488] <= 0.782\nmse = 0.0\nsamples = 3406\nvalue = [[0.0]\n[0.0]\n[0.0]\n[0.0]\n[0.0]\n[0.0]\n[0.0]\n[0.999]\n[0.0]\n[0.001]]"] ;
60 -> 61 ;
62 [label="X[496] <= 0.92\nmse = 0.0\nsamples = 3367\nvalue = [[0.0]\n[0.0]\n[0.0]\n[0.0]\n[0.0]\n[0.0]\n[0.0]\n[0.999]\n[0.0]\n[0.001]]"] ;
61 -> 62 ;
63 [label="X[264] <= 0.002\nmse = 0.0\nsamples = 3321\nvalue = [[0.0]\n[0.0]\n[0.0]\n[0.0]\n[0.0]\n[0.0]\n[0.0]\n[0.999]\n[0.0]\n[0.001]]"] ;
62 -> 63 ;
64 [label="X[347] <= 0.339\nmse = 0.004\nsamples = 47\nvalue = [[0.0]\n[0.0]\n[0.0]\n[0.0]\n[0.0]\n[0.0]\n[0.0]\n[0.979]\n[0.0]\n[0.021]]"] ;
63 -> 64 ;
65 [label="mse = 0.0\nsamples = 46\nvalue = [[0.0]\n[0.0]\n[0.0]\n[0.0]\n[0.0]\n[0.0]\n[0.0]\n[1.0]\n[0.0]\n[0.0]]"] ;
64 -> 65 ;
66 [label="mse = 0.0\nsamples = 1\nvalue = [[0.0]\n[0.0]\n[0.0]\n[0.0]\n[0.0]\n[0.0]\n[0.0]\n[0.0]\n[0.0]\n[1.0]]"] ;
64 -> 66 ;
67 [label="X[264] <= 0.218\nmse = 0.0\nsamples = 3274\nvalue = [[0.0]\n[0.0]\n[0.0]\n[0.0]\n[0.0]\n[0.0]\n[0.0]\n[1.0]\n[0.0]\n[0.0]]"] ;
63 -> 67 ;
68 [label="X[739] <= 0.973\nmse = 0.001\nsamples = 140\nvalue = [[0.0]\n[0.0]\n[0.0]\n[0.0]\n[0.0]\n[0.0]\n[0.0]\n[0.993]\n[0.0]\n[0.007]]"] ;
67 -> 68 ;
69 [label="mse = 0.0\nsamples = 134\nvalue = [[0.0]\n[0.0]\n[0.0]\n[0.0]\n[0.0]\n[0.0]\n[0.0]\n[1.0]\n[0.0]\n[0.0]]"] ;
68 -> 69 ;
70 [label="X[326] <= 0.212\nmse = 0.028\nsamples = 6\nvalue = [[0.0]\n[0.0]\n[0.0]\n[0.0]\n[0.0]\n[0.0]\n[0.0]\n[0.833]\n[0.0]\n[0.167]]"] ;
68 -> 70 ;
71 [label="mse = 0.0\nsamples = 1\nvalue = [[0.0]\n[0.0]\n[0.0]\n[0.0]\n[0.0]\n[0.0]\n[0.0]\n[0.0]\n[0.0]\n[1.0]]"] ;
70 -> 71 ;
72 [label="mse = 0.0\nsamples = 5\nvalue = [[0.0]\n[0.0]\n[0.0]\n[0.0]\n[0.0]\n[0.0]\n[0.0]\n[1.0]\n[0.0]\n[0.0]]"] ;
70 -> 72 ;
73 [label="mse = 0.0\nsamples = 3134\nvalue = [[0.0]\n[0.0]\n[0.0]\n[0.0]\n[0.0]\n[0.0]\n[0.0]\n[1.0]\n[0.0]\n[0.0]]"] ;
67 -> 73 ;
74 [label="X[213] <= 0.994\nmse = 0.004\nsamples = 46\nvalue = [[0.0]\n[0.0]\n[0.0]\n[0.022]\n[0.0]\n[0.0]\n[0.0]\n[0.978]\n[0.0]\n[0.0]]"] ;
62 -> 74 ;
75 [label="mse = 0.0\nsamples = 45\nvalue = [[0.0]\n[0.0]\n[0.0]\n[0.0]\n[0.0]\n[0.0]\n[0.0]\n[1.0]\n[0.0]\n[0.0]]"] ;
74 -> 75 ;
76 [label="mse = 0.0\nsamples = 1\nvalue = [[0.0]\n[0.0]\n[0.0]\n[1.0]\n[0.0]\n[0.0]\n[0.0]\n[0.0]\n[0.0]\n[0.0]]"] ;
74 -> 76 ;
77 [label="X[488] <= 0.786\nmse = 0.005\nsamples = 39\nvalue = [[0.0]\n[0.0]\n[0.026]\n[0.0]\n[0.0]\n[0.0]\n[0.0]\n[0.974]\n[0.0]\n[0.0]]"] ;
61 -> 77 ;
78 [label="mse = 0.0\nsamples = 1\nvalue = [[0.0]\n[0.0]\n[1.0]\n[0.0]\n[0.0]\n[0.0]\n[0.0]\n[0.0]\n[0.0]\n[0.0]]"] ;
77 -> 78 ;
79 [label="mse = 0.0\nsamples = 38\nvalue = [[0.0]\n[0.0]\n[0.0]\n[0.0]\n[0.0]\n[0.0]\n[0.0]\n[1.0]\n[0.0]\n[0.0]]"] ;
77 -> 79 ;
80 [label="X[295] <= 0.963\nmse = 0.008\nsamples = 73\nvalue = [[0.0]\n[0.0]\n[0.0]\n[0.027]\n[0.0]\n[0.0]\n[0.0]\n[0.959]\n[0.0]\n[0.014]]"] ;
60 -> 80 ;
81 [label="X[607] <= 0.063\nmse = 0.005\nsamples = 72\nvalue = [[0.0]\n[0.0]\n[0.0]\n[0.028]\n[0.0]\n[0.0]\n[0.0]\n[0.972]\n[0.0]\n[0.0]]"] ;
80 -> 81 ;
82 [label="X[518] <= 0.014\nmse = 0.003\nsamples = 71\nvalue = [[0.0]\n[0.0]\n[0.0]\n[0.014]\n[0.0]\n[0.0]\n[0.0]\n[0.986]\n[0.0]\n[0.0]]"] ;
81 -> 82 ;
83 [label="mse = 0.0\nsamples = 1\nvalue = [[0.0]\n[0.0]\n[0.0]\n[1.0]\n[0.0]\n[0.0]\n[0.0]\n[0.0]\n[0.0]\n[0.0]]"] ;
82 -> 83 ;
84 [label="mse = 0.0\nsamples = 70\nvalue = [[0.0]\n[0.0]\n[0.0]\n[0.0]\n[0.0]\n[0.0]\n[0.0]\n[1.0]\n[0.0]\n[0.0]]"] ;
82 -> 84 ;
85 [label="mse = 0.0\nsamples = 1\nvalue = [[0.0]\n[0.0]\n[0.0]\n[1.0]\n[0.0]\n[0.0]\n[0.0]\n[0.0]\n[0.0]\n[0.0]]"] ;
81 -> 85 ;
86 [label="mse = 0.0\nsamples = 1\nvalue = [[0.0]\n[0.0]\n[0.0]\n[0.0]\n[0.0]\n[0.0]\n[0.0]\n[0.0]\n[0.0]\n[1.0]]"] ;
80 -> 86 ;
87 [label="X[635] <= 0.396\nmse = 0.044\nsamples = 3\nvalue = [[0.0]\n[0.0]\n[0.333]\n[0.0]\n[0.0]\n[0.0]\n[0.0]\n[0.667]\n[0.0]\n[0.0]]"] ;
27 -> 87 ;
88 [label="mse = 0.0\nsamples = 1\nvalue = [[0.0]\n[0.0]\n[1.0]\n[0.0]\n[0.0]\n[0.0]\n[0.0]\n[0.0]\n[0.0]\n[0.0]]"] ;
87 -> 88 ;
89 [label="mse = 0.0\nsamples = 2\nvalue = [[0.0]\n[0.0]\n[0.0]\n[0.0]\n[0.0]\n[0.0]\n[0.0]\n[1.0]\n[0.0]\n[0.0]]"] ;
87 -> 89 ;
90 [label="X[236] <= 0.257\nmse = 0.05\nsamples = 2\nvalue = [[0.0]\n[0.0]\n[0.0]\n[0.0]\n[0.0]\n[0.0]\n[0.0]\n[0.5]\n[0.0]\n[0.5]]"] ;
26 -> 90 ;
91 [label="mse = 0.0\nsamples = 1\nvalue = [[0.0]\n[0.0]\n[0.0]\n[0.0]\n[0.0]\n[0.0]\n[0.0]\n[1.0]\n[0.0]\n[0.0]]"] ;
90 -> 91 ;
92 [label="mse = 0.0\nsamples = 1\nvalue = [[0.0]\n[0.0]\n[0.0]\n[0.0]\n[0.0]\n[0.0]\n[0.0]\n[0.0]\n[0.0]\n[1.0]]"] ;
90 -> 92 ;
93 [label="X[408] <= 0.996\nmse = 0.05\nsamples = 2\nvalue = [[0.0]\n[0.0]\n[0.0]\n[0.0]\n[0.5]\n[0.0]\n[0.0]\n[0.5]\n[0.0]\n[0.0]]"] ;
25 -> 93 ;
94 [label="mse = 0.0\nsamples = 1\nvalue = [[0.0]\n[0.0]\n[0.0]\n[0.0]\n[1.0]\n[0.0]\n[0.0]\n[0.0]\n[0.0]\n[0.0]]"] ;
93 -> 94 ;
95 [label="mse = 0.0\nsamples = 1\nvalue = [[0.0]\n[0.0]\n[0.0]\n[0.0]\n[0.0]\n[0.0]\n[0.0]\n[1.0]\n[0.0]\n[0.0]]"] ;
93 -> 95 ;
96 [label="X[182] <= 0.673\nmse = 0.009\nsamples = 369\nvalue = [[0.0]\n[0.003]\n[0.0]\n[0.005]\n[0.003]\n[0.0]\n[0.0]\n[0.951]\n[0.0]\n[0.038]]"] ;
24 -> 96 ;
97 [label="X[507] <= 0.331\nmse = 0.006\nsamples = 346\nvalue = [[0.0]\n[0.003]\n[0.0]\n[0.003]\n[0.003]\n[0.0]\n[0.0]\n[0.971]\n[0.0]\n[0.02]]"] ;
96 -> 97 ;
98 [label="X[677] <= 0.1\nmse = 0.005\nsamples = 345\nvalue = [[0.0]\n[0.003]\n[0.0]\n[0.003]\n[0.0]\n[0.0]\n[0.0]\n[0.974]\n[0.0]\n[0.02]]"] ;
97 -> 98 ;
99 [label="X[546] <= 0.998\nmse = 0.005\nsamples = 344\nvalue = [[0.0]\n[0.003]\n[0.0]\n[0.003]\n[0.0]\n[0.0]\n[0.0]\n[0.977]\n[0.0]\n[0.017]]"] ;
98 -> 99 ;
100 [label="X[297] <= 0.002\nmse = 0.004\nsamples = 343\nvalue = [[0.0]\n[0.003]\n[0.0]\n[0.003]\n[0.0]\n[0.0]\n[0.0]\n[0.98]\n[0.0]\n[0.015]]"] ;
99 -> 100 ;
101 [label="X[212] <= 0.257\nmse = 0.034\nsamples = 15\nvalue = [[0.0]\n[0.067]\n[0.0]\n[0.0]\n[0.0]\n[0.0]\n[0.0]\n[0.8]\n[0.0]\n[0.133]]"] ;
100 -> 101 ;
102 [label="mse = 0.0\nsamples = 12\nvalue = [[0.0]\n[0.0]\n[0.0]\n[0.0]\n[0.0]\n[0.0]\n[0.0]\n[1.0]\n[0.0]\n[0.0]]"] ;
101 -> 102 ;
103 [label="X[265] <= 0.118\nmse = 0.044\nsamples = 3\nvalue = [[0.0]\n[0.333]\n[0.0]\n[0.0]\n[0.0]\n[0.0]\n[0.0]\n[0.0]\n[0.0]\n[0.667]]"] ;
101 -> 103 ;
104 [label="mse = 0.0\nsamples = 1\nvalue = [[0.0]\n[1.0]\n[0.0]\n[0.0]\n[0.0]\n[0.0]\n[0.0]\n[0.0]\n[0.0]\n[0.0]]"] ;
103 -> 104 ;
105 [label="mse = 0.0\nsamples = 2\nvalue = [[0.0]\n[0.0]\n[0.0]\n[0.0]\n[0.0]\n[0.0]\n[0.0]\n[0.0]\n[0.0]\n[1.0]]"] ;
103 -> 105 ;
106 [label="X[209] <= 0.998\nmse = 0.002\nsamples = 328\nvalue = [[0.0]\n[0.0]\n[0.0]\n[0.003]\n[0.0]\n[0.0]\n[0.0]\n[0.988]\n[0.0]\n[0.009]]"] ;
100 -> 106 ;
107 [label="X[207] <= 0.998\nmse = 0.001\nsamples = 317\nvalue = [[0.0]\n[0.0]\n[0.0]\n[0.003]\n[0.0]\n[0.0]\n[0.0]\n[0.994]\n[0.0]\n[0.003]]"] ;
106 -> 107 ;
108 [label="X[491] <= 0.998\nmse = 0.001\nsamples = 314\nvalue = [[0.0]\n[0.0]\n[0.0]\n[0.0]\n[0.0]\n[0.0]\n[0.0]\n[0.997]\n[0.0]\n[0.003]]"] ;
107 -> 108 ;
109 [label="mse = 0.0\nsamples = 306\nvalue = [[0.0]\n[0.0]\n[0.0]\n[0.0]\n[0.0]\n[0.0]\n[0.0]\n[1.0]\n[0.0]\n[0.0]]"] ;
108 -> 109 ;
110 [label="X[318] <= 0.99\nmse = 0.022\nsamples = 8\nvalue = [[0.0]\n[0.0]\n[0.0]\n[0.0]\n[0.0]\n[0.0]\n[0.0]\n[0.875]\n[0.0]\n[0.125]]"] ;
108 -> 110 ;
111 [label="mse = 0.0\nsamples = 7\nvalue = [[0.0]\n[0.0]\n[0.0]\n[0.0]\n[0.0]\n[0.0]\n[0.0]\n[1.0]\n[0.0]\n[0.0]]"] ;
110 -> 111 ;
112 [label="mse = 0.0\nsamples = 1\nvalue = [[0.0]\n[0.0]\n[0.0]\n[0.0]\n[0.0]\n[0.0]\n[0.0]\n[0.0]\n[0.0]\n[1.0]]"] ;
110 -> 112 ;
113 [label="X[630] <= 0.496\nmse = 0.044\nsamples = 3\nvalue = [[0.0]\n[0.0]\n[0.0]\n[0.333]\n[0.0]\n[0.0]\n[0.0]\n[0.667]\n[0.0]\n[0.0]]"] ;
107 -> 113 ;
114 [label="mse = 0.0\nsamples = 1\nvalue = [[0.0]\n[0.0]\n[0.0]\n[1.0]\n[0.0]\n[0.0]\n[0.0]\n[0.0]\n[0.0]\n[0.0]]"] ;
113 -> 114 ;
115 [label="mse = 0.0\nsamples = 2\nvalue = [[0.0]\n[0.0]\n[0.0]\n[0.0]\n[0.0]\n[0.0]\n[0.0]\n[1.0]\n[0.0]\n[0.0]]"] ;
113 -> 115 ;
116 [label="X[268] <= 0.845\nmse = 0.03\nsamples = 11\nvalue = [[0.0]\n[0.0]\n[0.0]\n[0.0]\n[0.0]\n[0.0]\n[0.0]\n[0.818]\n[0.0]\n[0.182]]"] ;
106 -> 116 ;
117 [label="mse = 0.0\nsamples = 2\nvalue = [[0.0]\n[0.0]\n[0.0]\n[0.0]\n[0.0]\n[0.0]\n[0.0]\n[0.0]\n[0.0]\n[1.0]]"] ;
116 -> 117 ;
118 [label="mse = 0.0\nsamples = 9\nvalue = [[0.0]\n[0.0]\n[0.0]\n[0.0]\n[0.0]\n[0.0]\n[0.0]\n[1.0]\n[0.0]\n[0.0]]"] ;
116 -> 118 ;
119 [label="mse = 0.0\nsamples = 1\nvalue = [[0.0]\n[0.0]\n[0.0]\n[0.0]\n[0.0]\n[0.0]\n[0.0]\n[0.0]\n[0.0]\n[1.0]]"] ;
99 -> 119 ;
120 [label="mse = 0.0\nsamples = 1\nvalue = [[0.0]\n[0.0]\n[0.0]\n[0.0]\n[0.0]\n[0.0]\n[0.0]\n[0.0]\n[0.0]\n[1.0]]"] ;
98 -> 120 ;
121 [label="mse = 0.0\nsamples = 1\nvalue = [[0.0]\n[0.0]\n[0.0]\n[0.0]\n[1.0]\n[0.0]\n[0.0]\n[0.0]\n[0.0]\n[0.0]]"] ;
97 -> 121 ;
122 [label="X[296] <= 0.833\nmse = 0.048\nsamples = 23\nvalue = [[0.0]\n[0.0]\n[0.0]\n[0.043]\n[0.0]\n[0.0]\n[0.0]\n[0.652]\n[0.0]\n[0.304]]"] ;
96 -> 122 ;
123 [label="X[237] <= 0.753\nmse = 0.028\nsamples = 6\nvalue = [[0.0]\n[0.0]\n[0.0]\n[0.167]\n[0.0]\n[0.0]\n[0.0]\n[0.0]\n[0.0]\n[0.833]]"] ;
122 -> 123 ;
124 [label="mse = 0.0\nsamples = 5\nvalue = [[0.0]\n[0.0]\n[0.0]\n[0.0]\n[0.0]\n[0.0]\n[0.0]\n[0.0]\n[0.0]\n[1.0]]"] ;
123 -> 124 ;
125 [label="mse = 0.0\nsamples = 1\nvalue = [[0.0]\n[0.0]\n[0.0]\n[1.0]\n[0.0]\n[0.0]\n[0.0]\n[0.0]\n[0.0]\n[0.0]]"] ;
123 -> 125 ;
126 [label="X[349] <= 0.604\nmse = 0.021\nsamples = 17\nvalue = [[0.0]\n[0.0]\n[0.0]\n[0.0]\n[0.0]\n[0.0]\n[0.0]\n[0.882]\n[0.0]\n[0.118]]"] ;
122 -> 126 ;
127 [label="X[294] <= 0.994\nmse = 0.012\nsamples = 16\nvalue = [[0.0]\n[0.0]\n[0.0]\n[0.0]\n[0.0]\n[0.0]\n[0.0]\n[0.938]\n[0.0]\n[0.062]]"] ;
126 -> 127 ;
128 [label="mse = 0.0\nsamples = 15\nvalue = [[0.0]\n[0.0]\n[0.0]\n[0.0]\n[0.0]\n[0.0]\n[0.0]\n[1.0]\n[0.0]\n[0.0]]"] ;
127 -> 128 ;
129 [label="mse = 0.0\nsamples = 1\nvalue = [[0.0]\n[0.0]\n[0.0]\n[0.0]\n[0.0]\n[0.0]\n[0.0]\n[0.0]\n[0.0]\n[1.0]]"] ;
127 -> 129 ;
130 [label="mse = 0.0\nsamples = 1\nvalue = [[0.0]\n[0.0]\n[0.0]\n[0.0]\n[0.0]\n[0.0]\n[0.0]\n[0.0]\n[0.0]\n[1.0]]"] ;
126 -> 130 ;
131 [label="mse = 0.0\nsamples = 1\nvalue = [[0.0]\n[0.0]\n[0.0]\n[1.0]\n[0.0]\n[0.0]\n[0.0]\n[0.0]\n[0.0]\n[0.0]]"] ;
23 -> 131 ;
132 [label="mse = 0.0\nsamples = 1\nvalue = [[0.0]\n[0.0]\n[0.0]\n[0.0]\n[0.0]\n[1.0]\n[0.0]\n[0.0]\n[0.0]\n[0.0]]"] ;
22 -> 132 ;
133 [label="mse = 0.0\nsamples = 1\nvalue = [[0.0]\n[0.0]\n[0.0]\n[0.0]\n[0.0]\n[0.0]\n[1.0]\n[0.0]\n[0.0]\n[0.0]]"] ;
21 -> 133 ;
134 [label="X[212] <= 0.01\nmse = 0.047\nsamples = 8\nvalue = [[0.0]\n[0.0]\n[0.375]\n[0.0]\n[0.0]\n[0.0]\n[0.0]\n[0.625]\n[0.0]\n[0.0]]"] ;
20 -> 134 ;
135 [label="mse = 0.0\nsamples = 3\nvalue = [[0.0]\n[0.0]\n[1.0]\n[0.0]\n[0.0]\n[0.0]\n[0.0]\n[0.0]\n[0.0]\n[0.0]]"] ;
134 -> 135 ;
136 [label="mse = 0.0\nsamples = 5\nvalue = [[0.0]\n[0.0]\n[0.0]\n[0.0]\n[0.0]\n[0.0]\n[0.0]\n[1.0]\n[0.0]\n[0.0]]"] ;
134 -> 136 ;
137 [label="X[237] <= 0.416\nmse = 0.072\nsamples = 5\nvalue = [[0.0]\n[0.0]\n[0.0]\n[0.2]\n[0.0]\n[0.2]\n[0.0]\n[0.4]\n[0.0]\n[0.2]]"] ;
19 -> 137 ;
138 [label="mse = 0.0\nsamples = 2\nvalue = [[0.0]\n[0.0]\n[0.0]\n[0.0]\n[0.0]\n[0.0]\n[0.0]\n[1.0]\n[0.0]\n[0.0]]"] ;
137 -> 138 ;
139 [label="X[653] <= 0.104\nmse = 0.067\nsamples = 3\nvalue = [[0.0]\n[0.0]\n[0.0]\n[0.333]\n[0.0]\n[0.333]\n[0.0]\n[0.0]\n[0.0]\n[0.333]]"] ;
137 -> 139 ;
140 [label="mse = 0.0\nsamples = 1\nvalue = [[0.0]\n[0.0]\n[0.0]\n[0.0]\n[0.0]\n[0.0]\n[0.0]\n[0.0]\n[0.0]\n[1.0]]"] ;
139 -> 140 ;
141 [label="X[550] <= 0.91\nmse = 0.05\nsamples = 2\nvalue = [[0.0]\n[0.0]\n[0.0]\n[0.5]\n[0.0]\n[0.5]\n[0.0]\n[0.0]\n[0.0]\n[0.0]]"] ;
139 -> 141 ;
142 [label="mse = 0.0\nsamples = 1\nvalue = [[0.0]\n[0.0]\n[0.0]\n[0.0]\n[0.0]\n[1.0]\n[0.0]\n[0.0]\n[0.0]\n[0.0]]"] ;
141 -> 142 ;
143 [label="mse = 0.0\nsamples = 1\nvalue = [[0.0]\n[0.0]\n[0.0]\n[1.0]\n[0.0]\n[0.0]\n[0.0]\n[0.0]\n[0.0]\n[0.0]]"] ;
141 -> 143 ;
144 [label="X[439] <= 0.159\nmse = 0.044\nsamples = 3\nvalue = [[0.0]\n[0.0]\n[0.667]\n[0.0]\n[0.0]\n[0.0]\n[0.0]\n[0.333]\n[0.0]\n[0.0]]"] ;
18 -> 144 ;
145 [label="mse = 0.0\nsamples = 2\nvalue = [[0.0]\n[0.0]\n[1.0]\n[0.0]\n[0.0]\n[0.0]\n[0.0]\n[0.0]\n[0.0]\n[0.0]]"] ;
144 -> 145 ;
146 [label="mse = 0.0\nsamples = 1\nvalue = [[0.0]\n[0.0]\n[0.0]\n[0.0]\n[0.0]\n[0.0]\n[0.0]\n[1.0]\n[0.0]\n[0.0]]"] ;
144 -> 146 ;
147 [label="X[550] <= 0.004\nmse = 0.061\nsamples = 7\nvalue = [[0.0]\n[0.0]\n[0.429]\n[0.143]\n[0.0]\n[0.0]\n[0.0]\n[0.429]\n[0.0]\n[0.0]]"] ;
17 -> 147 ;
148 [label="X[239] <= 0.959\nmse = 0.037\nsamples = 4\nvalue = [[0.0]\n[0.0]\n[0.0]\n[0.25]\n[0.0]\n[0.0]\n[0.0]\n[0.75]\n[0.0]\n[0.0]]"] ;
147 -> 148 ;
149 [label="mse = 0.0\nsamples = 1\nvalue = [[0.0]\n[0.0]\n[0.0]\n[1.0]\n[0.0]\n[0.0]\n[0.0]\n[0.0]\n[0.0]\n[0.0]]"] ;
148 -> 149 ;
150 [label="mse = 0.0\nsamples = 3\nvalue = [[0.0]\n[0.0]\n[0.0]\n[0.0]\n[0.0]\n[0.0]\n[0.0]\n[1.0]\n[0.0]\n[0.0]]"] ;
148 -> 150 ;
151 [label="mse = 0.0\nsamples = 3\nvalue = [[0.0]\n[0.0]\n[1.0]\n[0.0]\n[0.0]\n[0.0]\n[0.0]\n[0.0]\n[0.0]\n[0.0]]"] ;
147 -> 151 ;
152 [label="mse = 0.0\nsamples = 3\nvalue = [[0.0]\n[0.0]\n[1.0]\n[0.0]\n[0.0]\n[0.0]\n[0.0]\n[0.0]\n[0.0]\n[0.0]]"] ;
16 -> 152 ;
153 [label="X[607] <= 0.12\nmse = 0.043\nsamples = 72\nvalue = [[0.0]\n[0.0]\n[0.083]\n[0.153]\n[0.0]\n[0.0]\n[0.0]\n[0.736]\n[0.0]\n[0.028]]"] ;
15 -> 153 ;
154 [label="X[379] <= 0.104\nmse = 0.034\nsamples = 66\nvalue = [[0.0]\n[0.0]\n[0.091]\n[0.076]\n[0.0]\n[0.0]\n[0.0]\n[0.803]\n[0.0]\n[0.03]]"] ;
153 -> 154 ;
155 [label="X[516] <= 0.396\nmse = 0.07\nsamples = 17\nvalue = [[0.0]\n[0.0]\n[0.176]\n[0.294]\n[0.0]\n[0.0]\n[0.0]\n[0.412]\n[0.0]\n[0.118]]"] ;
154 -> 155 ;
156 [label="X[398] <= 0.275\nmse = 0.035\nsamples = 9\nvalue = [[0.0]\n[0.0]\n[0.0]\n[0.0]\n[0.0]\n[0.0]\n[0.0]\n[0.778]\n[0.0]\n[0.222]]"] ;
155 -> 156 ;
157 [label="mse = 0.0\nsamples = 7\nvalue = [[0.0]\n[0.0]\n[0.0]\n[0.0]\n[0.0]\n[0.0]\n[0.0]\n[1.0]\n[0.0]\n[0.0]]"] ;
156 -> 157 ;
158 [label="mse = 0.0\nsamples = 2\nvalue = [[0.0]\n[0.0]\n[0.0]\n[0.0]\n[0.0]\n[0.0]\n[0.0]\n[0.0]\n[0.0]\n[1.0]]"] ;
156 -> 158 ;
159 [label="X[571] <= 0.41\nmse = 0.047\nsamples = 8\nvalue = [[0.0]\n[0.0]\n[0.375]\n[0.625]\n[0.0]\n[0.0]\n[0.0]\n[0.0]\n[0.0]\n[0.0]]"] ;
155 -> 159 ;
160 [label="mse = 0.0\nsamples = 5\nvalue = [[0.0]\n[0.0]\n[0.0]\n[1.0]\n[0.0]\n[0.0]\n[0.0]\n[0.0]\n[0.0]\n[0.0]]"] ;
159 -> 160 ;
161 [label="mse = 0.0\nsamples = 3\nvalue = [[0.0]\n[0.0]\n[1.0]\n[0.0]\n[0.0]\n[0.0]\n[0.0]\n[0.0]\n[0.0]\n[0.0]]"] ;
159 -> 161 ;
162 [label="X[690] <= 0.329\nmse = 0.011\nsamples = 49\nvalue = [[0.0]\n[0.0]\n[0.061]\n[0.0]\n[0.0]\n[0.0]\n[0.0]\n[0.939]\n[0.0]\n[0.0]]"] ;
154 -> 162 ;
163 [label="mse = 0.0\nsamples = 46\nvalue = [[0.0]\n[0.0]\n[0.0]\n[0.0]\n[0.0]\n[0.0]\n[0.0]\n[1.0]\n[0.0]\n[0.0]]"] ;
162 -> 163 ;
164 [label="mse = 0.0\nsamples = 3\nvalue = [[0.0]\n[0.0]\n[1.0]\n[0.0]\n[0.0]\n[0.0]\n[0.0]\n[0.0]\n[0.0]\n[0.0]]"] ;
162 -> 164 ;
165 [label="mse = 0.0\nsamples = 6\nvalue = [[0.0]\n[0.0]\n[0.0]\n[1.0]\n[0.0]\n[0.0]\n[0.0]\n[0.0]\n[0.0]\n[0.0]]"] ;
153 -> 165 ;
166 [label="mse = 0.0\nsamples = 5\nvalue = [[0.0]\n[1.0]\n[0.0]\n[0.0]\n[0.0]\n[0.0]\n[0.0]\n[0.0]\n[0.0]\n[0.0]]"] ;
14 -> 166 ;
167 [label="X[627] <= 0.222\nmse = 0.072\nsamples = 8\nvalue = [[0.0]\n[0.0]\n[0.0]\n[0.0]\n[0.25]\n[0.125]\n[0.0]\n[0.0]\n[0.375]\n[0.25]]"] ;
13 -> 167 ;
168 [label="X[519] <= 0.976\nmse = 0.064\nsamples = 5\nvalue = [[0.0]\n[0.0]\n[0.0]\n[0.0]\n[0.4]\n[0.2]\n[0.0]\n[0.0]\n[0.0]\n[0.4]]"] ;
167 -> 168 ;
169 [label="X[240] <= 0.527\nmse = 0.044\nsamples = 3\nvalue = [[0.0]\n[0.0]\n[0.0]\n[0.0]\n[0.667]\n[0.333]\n[0.0]\n[0.0]\n[0.0]\n[0.0]]"] ;
168 -> 169 ;
170 [label="mse = 0.0\nsamples = 2\nvalue = [[0.0]\n[0.0]\n[0.0]\n[0.0]\n[1.0]\n[0.0]\n[0.0]\n[0.0]\n[0.0]\n[0.0]]"] ;
169 -> 170 ;
171 [label="mse = 0.0\nsamples = 1\nvalue = [[0.0]\n[0.0]\n[0.0]\n[0.0]\n[0.0]\n[1.0]\n[0.0]\n[0.0]\n[0.0]\n[0.0]]"] ;
169 -> 171 ;
172 [label="mse = 0.0\nsamples = 2\nvalue = [[0.0]\n[0.0]\n[0.0]\n[0.0]\n[0.0]\n[0.0]\n[0.0]\n[0.0]\n[0.0]\n[1.0]]"] ;
168 -> 172 ;
173 [label="mse = 0.0\nsamples = 3\nvalue = [[0.0]\n[0.0]\n[0.0]\n[0.0]\n[0.0]\n[0.0]\n[0.0]\n[0.0]\n[1.0]\n[0.0]]"] ;
167 -> 173 ;
174 [label="X[294] <= 0.982\nmse = 0.061\nsamples = 38\nvalue = [[0.0]\n[0.0]\n[0.0]\n[0.026]\n[0.132]\n[0.0]\n[0.0]\n[0.526]\n[0.0]\n[0.316]]"] ;
12 -> 174 ;
175 [label="X[209] <= 0.127\nmse = 0.053\nsamples = 19\nvalue = [[0.0]\n[0.0]\n[0.0]\n[0.053]\n[0.263]\n[0.0]\n[0.0]\n[0.053]\n[0.0]\n[0.632]]"] ;
174 -> 175 ;
176 [label="mse = 0.0\nsamples = 5\nvalue = [[0.0]\n[0.0]\n[0.0]\n[0.0]\n[1.0]\n[0.0]\n[0.0]\n[0.0]\n[0.0]\n[0.0]]"] ;
175 -> 176 ;
177 [label="X[204] <= 0.051\nmse = 0.026\nsamples = 14\nvalue = [[0.0]\n[0.0]\n[0.0]\n[0.071]\n[0.0]\n[0.0]\n[0.0]\n[0.071]\n[0.0]\n[0.857]]"] ;
175 -> 177 ;
178 [label="mse = 0.0\nsamples = 12\nvalue = [[0.0]\n[0.0]\n[0.0]\n[0.0]\n[0.0]\n[0.0]\n[0.0]\n[0.0]\n[0.0]\n[1.0]]"] ;
177 -> 178 ;
179 [label="X[205] <= 0.927\nmse = 0.05\nsamples = 2\nvalue = [[0.0]\n[0.0]\n[0.0]\n[0.5]\n[0.0]\n[0.0]\n[0.0]\n[0.5]\n[0.0]\n[0.0]]"] ;
177 -> 179 ;
180 [label="mse = 0.0\nsamples = 1\nvalue = [[0.0]\n[0.0]\n[0.0]\n[0.0]\n[0.0]\n[0.0]\n[0.0]\n[1.0]\n[0.0]\n[0.0]]"] ;
179 -> 180 ;
181 [label="mse = 0.0\nsamples = 1\nvalue = [[0.0]\n[0.0]\n[0.0]\n[1.0]\n[0.0]\n[0.0]\n[0.0]\n[0.0]\n[0.0]\n[0.0]]"] ;
179 -> 181 ;
182 [label="mse = 0.0\nsamples = 19\nvalue = [[0.0]\n[0.0]\n[0.0]\n[0.0]\n[0.0]\n[0.0]\n[0.0]\n[1.0]\n[0.0]\n[0.0]]"] ;
174 -> 182 ;
183 [label="X[299] <= 0.418\nmse = 0.068\nsamples = 15\nvalue = [[0.067]\n[0.0]\n[0.0]\n[0.0]\n[0.0]\n[0.133]\n[0.267]\n[0.067]\n[0.0]\n[0.467]]"] ;
11 -> 183 ;
184 [label="X[239] <= 0.408\nmse = 0.057\nsamples = 7\nvalue = [[0.143]\n[0.0]\n[0.0]\n[0.0]\n[0.0]\n[0.286]\n[0.571]\n[0.0]\n[0.0]\n[0.0]]"] ;
183 -> 184 ;
185 [label="mse = 0.0\nsamples = 4\nvalue = [[0.0]\n[0.0]\n[0.0]\n[0.0]\n[0.0]\n[0.0]\n[1.0]\n[0.0]\n[0.0]\n[0.0]]"] ;
184 -> 185 ;
186 [label="X[542] <= 0.937\nmse = 0.044\nsamples = 3\nvalue = [[0.333]\n[0.0]\n[0.0]\n[0.0]\n[0.0]\n[0.667]\n[0.0]\n[0.0]\n[0.0]\n[0.0]]"] ;
184 -> 186 ;
187 [label="mse = 0.0\nsamples = 2\nvalue = [[0.0]\n[0.0]\n[0.0]\n[0.0]\n[0.0]\n[1.0]\n[0.0]\n[0.0]\n[0.0]\n[0.0]]"] ;
186 -> 187 ;
188 [label="mse = 0.0\nsamples = 1\nvalue = [[1.0]\n[0.0]\n[0.0]\n[0.0]\n[0.0]\n[0.0]\n[0.0]\n[0.0]\n[0.0]\n[0.0]]"] ;
186 -> 188 ;
189 [label="X[546] <= 0.653\nmse = 0.022\nsamples = 8\nvalue = [[0.0]\n[0.0]\n[0.0]\n[0.0]\n[0.0]\n[0.0]\n[0.0]\n[0.125]\n[0.0]\n[0.875]]"] ;
183 -> 189 ;
190 [label="mse = 0.0\nsamples = 7\nvalue = [[0.0]\n[0.0]\n[0.0]\n[0.0]\n[0.0]\n[0.0]\n[0.0]\n[0.0]\n[0.0]\n[1.0]]"] ;
189 -> 190 ;
191 [label="mse = 0.0\nsamples = 1\nvalue = [[0.0]\n[0.0]\n[0.0]\n[0.0]\n[0.0]\n[0.0]\n[0.0]\n[1.0]\n[0.0]\n[0.0]]"] ;
189 -> 191 ;
192 [label="X[327] <= 0.143\nmse = 0.018\nsamples = 10\nvalue = [[0.0]\n[0.9]\n[0.0]\n[0.0]\n[0.1]\n[0.0]\n[0.0]\n[0.0]\n[0.0]\n[0.0]]"] ;
10 -> 192 ;
193 [label="mse = 0.0\nsamples = 9\nvalue = [[0.0]\n[1.0]\n[0.0]\n[0.0]\n[0.0]\n[0.0]\n[0.0]\n[0.0]\n[0.0]\n[0.0]]"] ;
192 -> 193 ;
194 [label="mse = 0.0\nsamples = 1\nvalue = [[0.0]\n[0.0]\n[0.0]\n[0.0]\n[1.0]\n[0.0]\n[0.0]\n[0.0]\n[0.0]\n[0.0]]"] ;
192 -> 194 ;
195 [label="X[555] <= 0.304\nmse = 0.066\nsamples = 46\nvalue = [[0.022]\n[0.0]\n[0.435]\n[0.065]\n[0.0]\n[0.065]\n[0.022]\n[0.37]\n[0.0]\n[0.022]]"] ;
9 -> 195 ;
196 [label="X[406] <= 0.218\nmse = 0.068\nsamples = 35\nvalue = [[0.029]\n[0.0]\n[0.257]\n[0.086]\n[0.0]\n[0.086]\n[0.029]\n[0.486]\n[0.0]\n[0.029]]"] ;
195 -> 196 ;
197 [label="X[239] <= 0.422\nmse = 0.064\nsamples = 30\nvalue = [[0.033]\n[0.0]\n[0.133]\n[0.1]\n[0.0]\n[0.1]\n[0.033]\n[0.567]\n[0.0]\n[0.033]]"] ;
196 -> 197 ;
198 [label="X[689] <= 0.224\nmse = 0.083\nsamples = 15\nvalue = [[0.067]\n[0.0]\n[0.2]\n[0.2]\n[0.0]\n[0.2]\n[0.067]\n[0.2]\n[0.0]\n[0.067]]"] ;
197 -> 198 ;
199 [label="X[203] <= 0.441\nmse = 0.079\nsamples = 12\nvalue = [[0.083]\n[0.0]\n[0.25]\n[0.25]\n[0.0]\n[0.0]\n[0.083]\n[0.25]\n[0.0]\n[0.083]]"] ;
198 -> 199 ;
200 [label="X[296] <= 0.967\nmse = 0.074\nsamples = 9\nvalue = [[0.111]\n[0.0]\n[0.333]\n[0.0]\n[0.0]\n[0.0]\n[0.111]\n[0.333]\n[0.0]\n[0.111]]"] ;
199 -> 200 ;
201 [label="X[465] <= 0.267\nmse = 0.067\nsamples = 6\nvalue = [[0.167]\n[0.0]\n[0.5]\n[0.0]\n[0.0]\n[0.0]\n[0.167]\n[0.0]\n[0.0]\n[0.167]]"] ;
200 -> 201 ;
202 [label="X[489] <= 0.061\nmse = 0.067\nsamples = 3\nvalue = [[0.333]\n[0.0]\n[0.0]\n[0.0]\n[0.0]\n[0.0]\n[0.333]\n[0.0]\n[0.0]\n[0.333]]"] ;
201 -> 202 ;
203 [label="X[148] <= 0.002\nmse = 0.05\nsamples = 2\nvalue = [[0.5]\n[0.0]\n[0.0]\n[0.0]\n[0.0]\n[0.0]\n[0.5]\n[0.0]\n[0.0]\n[0.0]]"] ;
202 -> 203 ;
204 [label="mse = 0.0\nsamples = 1\nvalue = [[1.0]\n[0.0]\n[0.0]\n[0.0]\n[0.0]\n[0.0]\n[0.0]\n[0.0]\n[0.0]\n[0.0]]"] ;
203 -> 204 ;
205 [label="mse = 0.0\nsamples = 1\nvalue = [[0.0]\n[0.0]\n[0.0]\n[0.0]\n[0.0]\n[0.0]\n[1.0]\n[0.0]\n[0.0]\n[0.0]]"] ;
203 -> 205 ;
206 [label="mse = 0.0\nsamples = 1\nvalue = [[0.0]\n[0.0]\n[0.0]\n[0.0]\n[0.0]\n[0.0]\n[0.0]\n[0.0]\n[0.0]\n[1.0]]"] ;
202 -> 206 ;
207 [label="mse = 0.0\nsamples = 3\nvalue = [[0.0]\n[0.0]\n[1.0]\n[0.0]\n[0.0]\n[0.0]\n[0.0]\n[0.0]\n[0.0]\n[0.0]]"] ;
201 -> 207 ;
208 [label="mse = 0.0\nsamples = 3\nvalue = [[0.0]\n[0.0]\n[0.0]\n[0.0]\n[0.0]\n[0.0]\n[0.0]\n[1.0]\n[0.0]\n[0.0]]"] ;
200 -> 208 ;
209 [label="mse = 0.0\nsamples = 3\nvalue = [[0.0]\n[0.0]\n[0.0]\n[1.0]\n[0.0]\n[0.0]\n[0.0]\n[0.0]\n[0.0]\n[0.0]]"] ;
199 -> 209 ;
210 [label="mse = 0.0\nsamples = 3\nvalue = [[0.0]\n[0.0]\n[0.0]\n[0.0]\n[0.0]\n[1.0]\n[0.0]\n[0.0]\n[0.0]\n[0.0]]"] ;
198 -> 210 ;
211 [label="X[629] <= 0.725\nmse = 0.012\nsamples = 15\nvalue = [[0.0]\n[0.0]\n[0.067]\n[0.0]\n[0.0]\n[0.0]\n[0.0]\n[0.933]\n[0.0]\n[0.0]]"] ;
197 -> 211 ;
212 [label="mse = 0.0\nsamples = 14\nvalue = [[0.0]\n[0.0]\n[0.0]\n[0.0]\n[0.0]\n[0.0]\n[0.0]\n[1.0]\n[0.0]\n[0.0]]"] ;
211 -> 212 ;
213 [label="mse = 0.0\nsamples = 1\nvalue = [[0.0]\n[0.0]\n[1.0]\n[0.0]\n[0.0]\n[0.0]\n[0.0]\n[0.0]\n[0.0]\n[0.0]]"] ;
211 -> 213 ;
214 [label="mse = 0.0\nsamples = 5\nvalue = [[0.0]\n[0.0]\n[1.0]\n[0.0]\n[0.0]\n[0.0]\n[0.0]\n[0.0]\n[0.0]\n[0.0]]"] ;
196 -> 214 ;
215 [label="mse = 0.0\nsamples = 11\nvalue = [[0.0]\n[0.0]\n[1.0]\n[0.0]\n[0.0]\n[0.0]\n[0.0]\n[0.0]\n[0.0]\n[0.0]]"] ;
195 -> 215 ;
216 [label="X[203] <= 0.049\nmse = 0.07\nsamples = 58\nvalue = [[0.0]\n[0.017]\n[0.466]\n[0.121]\n[0.052]\n[0.0]\n[0.103]\n[0.241]\n[0.0]\n[0.0]]"] ;
8 -> 216 ;
217 [label="X[297] <= 0.08\nmse = 0.075\nsamples = 34\nvalue = [[0.0]\n[0.029]\n[0.147]\n[0.147]\n[0.088]\n[0.0]\n[0.176]\n[0.412]\n[0.0]\n[0.0]]"] ;
216 -> 217 ;
218 [label="X[546] <= 0.573\nmse = 0.075\nsamples = 16\nvalue = [[0.0]\n[0.062]\n[0.188]\n[0.188]\n[0.188]\n[0.0]\n[0.375]\n[0.0]\n[0.0]\n[0.0]]"] ;
217 -> 218 ;
219 [label="X[630] <= 0.651\nmse = 0.072\nsamples = 9\nvalue = [[0.0]\n[0.111]\n[0.333]\n[0.222]\n[0.333]\n[0.0]\n[0.0]\n[0.0]\n[0.0]\n[0.0]]"] ;
218 -> 219 ;
220 [label="X[266] <= 0.288\nmse = 0.061\nsamples = 6\nvalue = [[0.0]\n[0.167]\n[0.0]\n[0.333]\n[0.5]\n[0.0]\n[0.0]\n[0.0]\n[0.0]\n[0.0]]"] ;
219 -> 220 ;
221 [label="mse = 0.0\nsamples = 3\nvalue = [[0.0]\n[0.0]\n[0.0]\n[0.0]\n[1.0]\n[0.0]\n[0.0]\n[0.0]\n[0.0]\n[0.0]]"] ;
220 -> 221 ;
222 [label="X[323] <= 0.498\nmse = 0.044\nsamples = 3\nvalue = [[0.0]\n[0.333]\n[0.0]\n[0.667]\n[0.0]\n[0.0]\n[0.0]\n[0.0]\n[0.0]\n[0.0]]"] ;
220 -> 222 ;
223 [label="mse = 0.0\nsamples = 2\nvalue = [[0.0]\n[0.0]\n[0.0]\n[1.0]\n[0.0]\n[0.0]\n[0.0]\n[0.0]\n[0.0]\n[0.0]]"] ;
222 -> 223 ;
224 [label="mse = 0.0\nsamples = 1\nvalue = [[0.0]\n[1.0]\n[0.0]\n[0.0]\n[0.0]\n[0.0]\n[0.0]\n[0.0]\n[0.0]\n[0.0]]"] ;
222 -> 224 ;
225 [label="mse = 0.0\nsamples = 3\nvalue = [[0.0]\n[0.0]\n[1.0]\n[0.0]\n[0.0]\n[0.0]\n[0.0]\n[0.0]\n[0.0]\n[0.0]]"] ;
219 -> 225 ;
226 [label="X[624] <= 0.28\nmse = 0.024\nsamples = 7\nvalue = [[0.0]\n[0.0]\n[0.0]\n[0.143]\n[0.0]\n[0.0]\n[0.857]\n[0.0]\n[0.0]\n[0.0]]"] ;
218 -> 226 ;
227 [label="mse = 0.0\nsamples = 6\nvalue = [[0.0]\n[0.0]\n[0.0]\n[0.0]\n[0.0]\n[0.0]\n[1.0]\n[0.0]\n[0.0]\n[0.0]]"] ;
226 -> 227 ;
228 [label="mse = 0.0\nsamples = 1\nvalue = [[0.0]\n[0.0]\n[0.0]\n[1.0]\n[0.0]\n[0.0]\n[0.0]\n[0.0]\n[0.0]\n[0.0]]"] ;
226 -> 228 ;
229 [label="X[320] <= 0.033\nmse = 0.037\nsamples = 18\nvalue = [[0.0]\n[0.0]\n[0.111]\n[0.111]\n[0.0]\n[0.0]\n[0.0]\n[0.778]\n[0.0]\n[0.0]]"] ;
217 -> 229 ;
230 [label="mse = 0.0\nsamples = 14\nvalue = [[0.0]\n[0.0]\n[0.0]\n[0.0]\n[0.0]\n[0.0]\n[0.0]\n[1.0]\n[0.0]\n[0.0]]"] ;
229 -> 230 ;
231 [label="X[347] <= 0.19\nmse = 0.05\nsamples = 4\nvalue = [[0.0]\n[0.0]\n[0.5]\n[0.5]\n[0.0]\n[0.0]\n[0.0]\n[0.0]\n[0.0]\n[0.0]]"] ;
229 -> 231 ;
232 [label="mse = 0.0\nsamples = 2\nvalue = [[0.0]\n[0.0]\n[1.0]\n[0.0]\n[0.0]\n[0.0]\n[0.0]\n[0.0]\n[0.0]\n[0.0]]"] ;
231 -> 232 ;
233 [label="mse = 0.0\nsamples = 2\nvalue = [[0.0]\n[0.0]\n[0.0]\n[1.0]\n[0.0]\n[0.0]\n[0.0]\n[0.0]\n[0.0]\n[0.0]]"] ;
231 -> 233 ;
234 [label="X[293] <= 0.259\nmse = 0.015\nsamples = 24\nvalue = [[0.0]\n[0.0]\n[0.917]\n[0.083]\n[0.0]\n[0.0]\n[0.0]\n[0.0]\n[0.0]\n[0.0]]"] ;
216 -> 234 ;
235 [label="mse = 0.0\nsamples = 22\nvalue = [[0.0]\n[0.0]\n[1.0]\n[0.0]\n[0.0]\n[0.0]\n[0.0]\n[0.0]\n[0.0]\n[0.0]]"] ;
234 -> 235 ;
236 [label="mse = 0.0\nsamples = 2\nvalue = [[0.0]\n[0.0]\n[0.0]\n[1.0]\n[0.0]\n[0.0]\n[0.0]\n[0.0]\n[0.0]\n[0.0]]"] ;
234 -> 236 ;
237 [label="X[406] <= 0.476\nmse = 0.06\nsamples = 53\nvalue = [[0.019]\n[0.604]\n[0.057]\n[0.0]\n[0.038]\n[0.17]\n[0.038]\n[0.019]\n[0.057]\n[0.0]]"] ;
7 -> 237 ;
238 [label="X[350] <= 0.002\nmse = 0.078\nsamples = 22\nvalue = [[0.045]\n[0.091]\n[0.136]\n[0.0]\n[0.091]\n[0.409]\n[0.091]\n[0.045]\n[0.091]\n[0.0]]"] ;
237 -> 238 ;
239 [label="X[326] <= 0.933\nmse = 0.086\nsamples = 14\nvalue = [[0.071]\n[0.143]\n[0.214]\n[0.0]\n[0.143]\n[0.071]\n[0.143]\n[0.071]\n[0.143]\n[0.0]]"] ;
238 -> 239 ;
240 [label="X[514] <= 0.692\nmse = 0.084\nsamples = 11\nvalue = [[0.091]\n[0.182]\n[0.0]\n[0.0]\n[0.182]\n[0.091]\n[0.182]\n[0.091]\n[0.182]\n[0.0]]"] ;
239 -> 240 ;
241 [label="X[634] <= 0.302\nmse = 0.081\nsamples = 9\nvalue = [[0.111]\n[0.222]\n[0.0]\n[0.0]\n[0.0]\n[0.111]\n[0.222]\n[0.111]\n[0.222]\n[0.0]]"] ;
240 -> 241 ;
242 [label="X[326] <= 0.298\nmse = 0.078\nsamples = 7\nvalue = [[0.143]\n[0.0]\n[0.0]\n[0.0]\n[0.0]\n[0.143]\n[0.286]\n[0.143]\n[0.286]\n[0.0]]"] ;
241 -> 242 ;
243 [label="X[101] <= 0.459\nmse = 0.072\nsamples = 5\nvalue = [[0.2]\n[0.0]\n[0.0]\n[0.0]\n[0.0]\n[0.2]\n[0.4]\n[0.2]\n[0.0]\n[0.0]]"] ;
242 -> 243 ;
244 [label="X[402] <= 0.002\nmse = 0.067\nsamples = 3\nvalue = [[0.333]\n[0.0]\n[0.0]\n[0.0]\n[0.0]\n[0.333]\n[0.0]\n[0.333]\n[0.0]\n[0.0]]"] ;
243 -> 244 ;
245 [label="mse = 0.0\nsamples = 1\nvalue = [[0.0]\n[0.0]\n[0.0]\n[0.0]\n[0.0]\n[0.0]\n[0.0]\n[1.0]\n[0.0]\n[0.0]]"] ;
244 -> 245 ;
246 [label="X[403] <= 0.306\nmse = 0.05\nsamples = 2\nvalue = [[0.5]\n[0.0]\n[0.0]\n[0.0]\n[0.0]\n[0.5]\n[0.0]\n[0.0]\n[0.0]\n[0.0]]"] ;
244 -> 246 ;
247 [label="mse = 0.0\nsamples = 1\nvalue = [[1.0]\n[0.0]\n[0.0]\n[0.0]\n[0.0]\n[0.0]\n[0.0]\n[0.0]\n[0.0]\n[0.0]]"] ;
246 -> 247 ;
248 [label="mse = 0.0\nsamples = 1\nvalue = [[0.0]\n[0.0]\n[0.0]\n[0.0]\n[0.0]\n[1.0]\n[0.0]\n[0.0]\n[0.0]\n[0.0]]"] ;
246 -> 248 ;
249 [label="mse = 0.0\nsamples = 2\nvalue = [[0.0]\n[0.0]\n[0.0]\n[0.0]\n[0.0]\n[0.0]\n[1.0]\n[0.0]\n[0.0]\n[0.0]]"] ;
243 -> 249 ;
250 [label="mse = 0.0\nsamples = 2\nvalue = [[0.0]\n[0.0]\n[0.0]\n[0.0]\n[0.0]\n[0.0]\n[0.0]\n[0.0]\n[1.0]\n[0.0]]"] ;
242 -> 250 ;
251 [label="mse = 0.0\nsamples = 2\nvalue = [[0.0]\n[1.0]\n[0.0]\n[0.0]\n[0.0]\n[0.0]\n[0.0]\n[0.0]\n[0.0]\n[0.0]]"] ;
241 -> 251 ;
252 [label="mse = 0.0\nsamples = 2\nvalue = [[0.0]\n[0.0]\n[0.0]\n[0.0]\n[1.0]\n[0.0]\n[0.0]\n[0.0]\n[0.0]\n[0.0]]"] ;
240 -> 252 ;
253 [label="mse = 0.0\nsamples = 3\nvalue = [[0.0]\n[0.0]\n[1.0]\n[0.0]\n[0.0]\n[0.0]\n[0.0]\n[0.0]\n[0.0]\n[0.0]]"] ;
239 -> 253 ;
254 [label="mse = 0.0\nsamples = 8\nvalue = [[0.0]\n[0.0]\n[0.0]\n[0.0]\n[0.0]\n[1.0]\n[0.0]\n[0.0]\n[0.0]\n[0.0]]"] ;
238 -> 254 ;
255 [label="X[298] <= 0.988\nmse = 0.006\nsamples = 31\nvalue = [[0.0]\n[0.968]\n[0.0]\n[0.0]\n[0.0]\n[0.0]\n[0.0]\n[0.0]\n[0.032]\n[0.0]]"] ;
237 -> 255 ;
256 [label="mse = 0.0\nsamples = 30\nvalue = [[0.0]\n[1.0]\n[0.0]\n[0.0]\n[0.0]\n[0.0]\n[0.0]\n[0.0]\n[0.0]\n[0.0]]"] ;
255 -> 256 ;
257 [label="mse = 0.0\nsamples = 1\nvalue = [[0.0]\n[0.0]\n[0.0]\n[0.0]\n[0.0]\n[0.0]\n[0.0]\n[0.0]\n[1.0]\n[0.0]]"] ;
255 -> 257 ;
258 [label="X[481] <= 0.016\nmse = 0.027\nsamples = 81\nvalue = [[0.852]\n[0.012]\n[0.0]\n[0.037]\n[0.0]\n[0.086]\n[0.0]\n[0.012]\n[0.0]\n[0.0]]"] ;
6 -> 258 ;
259 [label="X[190] <= 0.006\nmse = 0.065\nsamples = 14\nvalue = [[0.214]\n[0.071]\n[0.0]\n[0.214]\n[0.0]\n[0.5]\n[0.0]\n[0.0]\n[0.0]\n[0.0]]"] ;
258 -> 259 ;
260 [label="X[510] <= 0.137\nmse = 0.069\nsamples = 8\nvalue = [[0.375]\n[0.125]\n[0.0]\n[0.375]\n[0.0]\n[0.125]\n[0.0]\n[0.0]\n[0.0]\n[0.0]]"] ;
259 -> 260 ;
261 [label="X[629] <= 0.594\nmse = 0.056\nsamples = 5\nvalue = [[0.0]\n[0.2]\n[0.0]\n[0.6]\n[0.0]\n[0.2]\n[0.0]\n[0.0]\n[0.0]\n[0.0]]"] ;
260 -> 261 ;
262 [label="mse = 0.0\nsamples = 3\nvalue = [[0.0]\n[0.0]\n[0.0]\n[1.0]\n[0.0]\n[0.0]\n[0.0]\n[0.0]\n[0.0]\n[0.0]]"] ;
261 -> 262 ;
263 [label="X[598] <= 0.459\nmse = 0.05\nsamples = 2\nvalue = [[0.0]\n[0.5]\n[0.0]\n[0.0]\n[0.0]\n[0.5]\n[0.0]\n[0.0]\n[0.0]\n[0.0]]"] ;
261 -> 263 ;
264 [label="mse = 0.0\nsamples = 1\nvalue = [[0.0]\n[0.0]\n[0.0]\n[0.0]\n[0.0]\n[1.0]\n[0.0]\n[0.0]\n[0.0]\n[0.0]]"] ;
263 -> 264 ;
265 [label="mse = 0.0\nsamples = 1\nvalue = [[0.0]\n[1.0]\n[0.0]\n[0.0]\n[0.0]\n[0.0]\n[0.0]\n[0.0]\n[0.0]\n[0.0]]"] ;
263 -> 265 ;
266 [label="mse = 0.0\nsamples = 3\nvalue = [[1.0]\n[0.0]\n[0.0]\n[0.0]\n[0.0]\n[0.0]\n[0.0]\n[0.0]\n[0.0]\n[0.0]]"] ;
260 -> 266 ;
267 [label="mse = 0.0\nsamples = 6\nvalue = [[0.0]\n[0.0]\n[0.0]\n[0.0]\n[0.0]\n[1.0]\n[0.0]\n[0.0]\n[0.0]\n[0.0]]"] ;
259 -> 267 ;
268 [label="X[663] <= 0.465\nmse = 0.003\nsamples = 67\nvalue = [[0.985]\n[0.0]\n[0.0]\n[0.0]\n[0.0]\n[0.0]\n[0.0]\n[0.015]\n[0.0]\n[0.0]]"] ;
258 -> 268 ;
269 [label="mse = 0.0\nsamples = 66\nvalue = [[1.0]\n[0.0]\n[0.0]\n[0.0]\n[0.0]\n[0.0]\n[0.0]\n[0.0]\n[0.0]\n[0.0]]"] ;
268 -> 269 ;
270 [label="mse = 0.0\nsamples = 1\nvalue = [[0.0]\n[0.0]\n[0.0]\n[0.0]\n[0.0]\n[0.0]\n[0.0]\n[1.0]\n[0.0]\n[0.0]]"] ;
268 -> 270 ;
271 [label="X[454] <= 0.01\nmse = 0.073\nsamples = 483\nvalue = [[0.193]\n[0.058]\n[0.462]\n[0.104]\n[0.0]\n[0.075]\n[0.017]\n[0.06]\n[0.017]\n[0.017]]"] ;
5 -> 271 ;
272 [label="X[544] <= 0.018\nmse = 0.064\nsamples = 386\nvalue = [[0.008]\n[0.073]\n[0.573]\n[0.124]\n[0.0]\n[0.093]\n[0.018]\n[0.075]\n[0.021]\n[0.016]]"] ;
271 -> 272 ;
273 [label="X[320] <= 0.047\nmse = 0.078\nsamples = 140\nvalue = [[0.021]\n[0.143]\n[0.186]\n[0.321]\n[0.0]\n[0.236]\n[0.0]\n[0.05]\n[0.0]\n[0.043]]"] ;
272 -> 273 ;
274 [label="X[435] <= 0.527\nmse = 0.075\nsamples = 74\nvalue = [[0.027]\n[0.243]\n[0.324]\n[0.27]\n[0.0]\n[0.041]\n[0.0]\n[0.095]\n[0.0]\n[0.0]]"] ;
273 -> 274 ;
275 [label="X[594] <= 0.265\nmse = 0.061\nsamples = 39\nvalue = [[0.051]\n[0.026]\n[0.59]\n[0.154]\n[0.0]\n[0.077]\n[0.0]\n[0.103]\n[0.0]\n[0.0]]"] ;
274 -> 275 ;
276 [label="X[350] <= 0.057\nmse = 0.049\nsamples = 33\nvalue = [[0.0]\n[0.03]\n[0.697]\n[0.061]\n[0.0]\n[0.091]\n[0.0]\n[0.121]\n[0.0]\n[0.0]]"] ;
275 -> 276 ;
277 [label="X[156] <= 0.994\nmse = 0.035\nsamples = 29\nvalue = [[0.0]\n[0.0]\n[0.793]\n[0.069]\n[0.0]\n[0.0]\n[0.0]\n[0.138]\n[0.0]\n[0.0]]"] ;
276 -> 277 ;
278 [label="X[372] <= 0.467\nmse = 0.025\nsamples = 27\nvalue = [[0.0]\n[0.0]\n[0.852]\n[0.0]\n[0.0]\n[0.0]\n[0.0]\n[0.148]\n[0.0]\n[0.0]]"] ;
277 -> 278 ;
279 [label="X[630] <= 0.012\nmse = 0.015\nsamples = 25\nvalue = [[0.0]\n[0.0]\n[0.92]\n[0.0]\n[0.0]\n[0.0]\n[0.0]\n[0.08]\n[0.0]\n[0.0]]"] ;
278 -> 279 ;
280 [label="mse = 0.0\nsamples = 1\nvalue = [[0.0]\n[0.0]\n[0.0]\n[0.0]\n[0.0]\n[0.0]\n[0.0]\n[1.0]\n[0.0]\n[0.0]]"] ;
279 -> 280 ;
281 [label="X[609] <= 0.925\nmse = 0.008\nsamples = 24\nvalue = [[0.0]\n[0.0]\n[0.958]\n[0.0]\n[0.0]\n[0.0]\n[0.0]\n[0.042]\n[0.0]\n[0.0]]"] ;
279 -> 281 ;
282 [label="mse = 0.0\nsamples = 23\nvalue = [[0.0]\n[0.0]\n[1.0]\n[0.0]\n[0.0]\n[0.0]\n[0.0]\n[0.0]\n[0.0]\n[0.0]]"] ;
281 -> 282 ;
283 [label="mse = 0.0\nsamples = 1\nvalue = [[0.0]\n[0.0]\n[0.0]\n[0.0]\n[0.0]\n[0.0]\n[0.0]\n[1.0]\n[0.0]\n[0.0]]"] ;
281 -> 283 ;
284 [label="mse = 0.0\nsamples = 2\nvalue = [[0.0]\n[0.0]\n[0.0]\n[0.0]\n[0.0]\n[0.0]\n[0.0]\n[1.0]\n[0.0]\n[0.0]]"] ;
278 -> 284 ;
285 [label="mse = 0.0\nsamples = 2\nvalue = [[0.0]\n[0.0]\n[0.0]\n[1.0]\n[0.0]\n[0.0]\n[0.0]\n[0.0]\n[0.0]\n[0.0]]"] ;
277 -> 285 ;
286 [label="X[296] <= 0.006\nmse = 0.037\nsamples = 4\nvalue = [[0.0]\n[0.25]\n[0.0]\n[0.0]\n[0.0]\n[0.75]\n[0.0]\n[0.0]\n[0.0]\n[0.0]]"] ;
276 -> 286 ;
287 [label="mse = 0.0\nsamples = 3\nvalue = [[0.0]\n[0.0]\n[0.0]\n[0.0]\n[0.0]\n[1.0]\n[0.0]\n[0.0]\n[0.0]\n[0.0]]"] ;
286 -> 287 ;
288 [label="mse = 0.0\nsamples = 1\nvalue = [[0.0]\n[1.0]\n[0.0]\n[0.0]\n[0.0]\n[0.0]\n[0.0]\n[0.0]\n[0.0]\n[0.0]]"] ;
286 -> 288 ;
289 [label="X[260] <= 0.42\nmse = 0.044\nsamples = 6\nvalue = [[0.333]\n[0.0]\n[0.0]\n[0.667]\n[0.0]\n[0.0]\n[0.0]\n[0.0]\n[0.0]\n[0.0]]"] ;
275 -> 289 ;
290 [label="mse = 0.0\nsamples = 4\nvalue = [[0.0]\n[0.0]\n[0.0]\n[1.0]\n[0.0]\n[0.0]\n[0.0]\n[0.0]\n[0.0]\n[0.0]]"] ;
289 -> 290 ;
291 [label="mse = 0.0\nsamples = 2\nvalue = [[1.0]\n[0.0]\n[0.0]\n[0.0]\n[0.0]\n[0.0]\n[0.0]\n[0.0]\n[0.0]\n[0.0]]"] ;
289 -> 291 ;
292 [label="X[655] <= 0.949\nmse = 0.06\nsamples = 35\nvalue = [[0.0]\n[0.486]\n[0.029]\n[0.4]\n[0.0]\n[0.0]\n[0.0]\n[0.086]\n[0.0]\n[0.0]]"] ;
274 -> 292 ;
293 [label="X[657] <= 0.992\nmse = 0.05\nsamples = 25\nvalue = [[0.0]\n[0.68]\n[0.04]\n[0.16]\n[0.0]\n[0.0]\n[0.0]\n[0.12]\n[0.0]\n[0.0]]"] ;
292 -> 293 ;
294 [label="X[490] <= 0.186\nmse = 0.037\nsamples = 22\nvalue = [[0.0]\n[0.773]\n[0.045]\n[0.182]\n[0.0]\n[0.0]\n[0.0]\n[0.0]\n[0.0]\n[0.0]]"] ;
293 -> 294 ;
295 [label="mse = 0.0\nsamples = 3\nvalue = [[0.0]\n[0.0]\n[0.0]\n[1.0]\n[0.0]\n[0.0]\n[0.0]\n[0.0]\n[0.0]\n[0.0]]"] ;
294 -> 295 ;
296 [label="X[602] <= 0.3\nmse = 0.019\nsamples = 19\nvalue = [[0.0]\n[0.895]\n[0.053]\n[0.053]\n[0.0]\n[0.0]\n[0.0]\n[0.0]\n[0.0]\n[0.0]]"] ;
294 -> 296 ;
297 [label="X[147] <= 0.327\nmse = 0.05\nsamples = 2\nvalue = [[0.0]\n[0.0]\n[0.5]\n[0.5]\n[0.0]\n[0.0]\n[0.0]\n[0.0]\n[0.0]\n[0.0]]"] ;
296 -> 297 ;
298 [label="mse = 0.0\nsamples = 1\nvalue = [[0.0]\n[0.0]\n[0.0]\n[1.0]\n[0.0]\n[0.0]\n[0.0]\n[0.0]\n[0.0]\n[0.0]]"] ;
297 -> 298 ;
299 [label="mse = 0.0\nsamples = 1\nvalue = [[0.0]\n[0.0]\n[1.0]\n[0.0]\n[0.0]\n[0.0]\n[0.0]\n[0.0]\n[0.0]\n[0.0]]"] ;
297 -> 299 ;
300 [label="mse = 0.0\nsamples = 17\nvalue = [[0.0]\n[1.0]\n[0.0]\n[0.0]\n[0.0]\n[0.0]\n[0.0]\n[0.0]\n[0.0]\n[0.0]]"] ;
296 -> 300 ;
301 [label="mse = 0.0\nsamples = 3\nvalue = [[0.0]\n[0.0]\n[0.0]\n[0.0]\n[0.0]\n[0.0]\n[0.0]\n[1.0]\n[0.0]\n[0.0]]"] ;
293 -> 301 ;
302 [label="mse = 0.0\nsamples = 10\nvalue = [[0.0]\n[0.0]\n[0.0]\n[1.0]\n[0.0]\n[0.0]\n[0.0]\n[0.0]\n[0.0]\n[0.0]]"] ;
292 -> 302 ;
303 [label="X[262] <= 0.188\nmse = 0.064\nsamples = 66\nvalue = [[0.015]\n[0.03]\n[0.03]\n[0.379]\n[0.0]\n[0.455]\n[0.0]\n[0.0]\n[0.0]\n[0.091]]"] ;
273 -> 303 ;
304 [label="X[152] <= 0.208\nmse = 0.057\nsamples = 36\nvalue = [[0.028]\n[0.056]\n[0.0]\n[0.611]\n[0.0]\n[0.194]\n[0.0]\n[0.0]\n[0.0]\n[0.111]]"] ;
303 -> 304 ;
305 [label="X[350] <= 0.025\nmse = 0.074\nsamples = 11\nvalue = [[0.091]\n[0.182]\n[0.0]\n[0.091]\n[0.0]\n[0.273]\n[0.0]\n[0.0]\n[0.0]\n[0.364]]"] ;
304 -> 305 ;
306 [label="X[633] <= 0.406\nmse = 0.069\nsamples = 7\nvalue = [[0.143]\n[0.286]\n[0.0]\n[0.143]\n[0.0]\n[0.429]\n[0.0]\n[0.0]\n[0.0]\n[0.0]]"] ;
305 -> 306 ;
307 [label="X[604] <= 0.814\nmse = 0.063\nsamples = 4\nvalue = [[0.25]\n[0.5]\n[0.0]\n[0.25]\n[0.0]\n[0.0]\n[0.0]\n[0.0]\n[0.0]\n[0.0]]"] ;
306 -> 307 ;
308 [label="mse = 0.0\nsamples = 2\nvalue = [[0.0]\n[1.0]\n[0.0]\n[0.0]\n[0.0]\n[0.0]\n[0.0]\n[0.0]\n[0.0]\n[0.0]]"] ;
307 -> 308 ;
309 [label="X[324] <= 0.496\nmse = 0.05\nsamples = 2\nvalue = [[0.5]\n[0.0]\n[0.0]\n[0.5]\n[0.0]\n[0.0]\n[0.0]\n[0.0]\n[0.0]\n[0.0]]"] ;
307 -> 309 ;
310 [label="mse = 0.0\nsamples = 1\nvalue = [[1.0]\n[0.0]\n[0.0]\n[0.0]\n[0.0]\n[0.0]\n[0.0]\n[0.0]\n[0.0]\n[0.0]]"] ;
309 -> 310 ;
311 [label="mse = 0.0\nsamples = 1\nvalue = [[0.0]\n[0.0]\n[0.0]\n[1.0]\n[0.0]\n[0.0]\n[0.0]\n[0.0]\n[0.0]\n[0.0]]"] ;
309 -> 311 ;
312 [label="mse = 0.0\nsamples = 3\nvalue = [[0.0]\n[0.0]\n[0.0]\n[0.0]\n[0.0]\n[1.0]\n[0.0]\n[0.0]\n[0.0]\n[0.0]]"] ;
306 -> 312 ;
313 [label="mse = 0.0\nsamples = 4\nvalue = [[0.0]\n[0.0]\n[0.0]\n[0.0]\n[0.0]\n[0.0]\n[0.0]\n[0.0]\n[0.0]\n[1.0]]"] ;
305 -> 313 ;
314 [label="X[267] <= 0.008\nmse = 0.027\nsamples = 25\nvalue = [[0.0]\n[0.0]\n[0.0]\n[0.84]\n[0.0]\n[0.16]\n[0.0]\n[0.0]\n[0.0]\n[0.0]]"] ;
304 -> 314 ;
315 [label="X[682] <= 0.769\nmse = 0.032\nsamples = 5\nvalue = [[0.0]\n[0.0]\n[0.0]\n[0.2]\n[0.0]\n[0.8]\n[0.0]\n[0.0]\n[0.0]\n[0.0]]"] ;
314 -> 315 ;
316 [label="mse = 0.0\nsamples = 4\nvalue = [[0.0]\n[0.0]\n[0.0]\n[0.0]\n[0.0]\n[1.0]\n[0.0]\n[0.0]\n[0.0]\n[0.0]]"] ;
315 -> 316 ;
317 [label="mse = 0.0\nsamples = 1\nvalue = [[0.0]\n[0.0]\n[0.0]\n[1.0]\n[0.0]\n[0.0]\n[0.0]\n[0.0]\n[0.0]\n[0.0]]"] ;
315 -> 317 ;
318 [label="mse = 0.0\nsamples = 20\nvalue = [[0.0]\n[0.0]\n[0.0]\n[1.0]\n[0.0]\n[0.0]\n[0.0]\n[0.0]\n[0.0]\n[0.0]]"] ;
314 -> 318 ;
319 [label="X[463] <= 0.041\nmse = 0.039\nsamples = 30\nvalue = [[0.0]\n[0.0]\n[0.067]\n[0.1]\n[0.0]\n[0.767]\n[0.0]\n[0.0]\n[0.0]\n[0.067]]"] ;
303 -> 319 ;
320 [label="X[483] <= 0.733\nmse = 0.015\nsamples = 25\nvalue = [[0.0]\n[0.0]\n[0.0]\n[0.08]\n[0.0]\n[0.92]\n[0.0]\n[0.0]\n[0.0]\n[0.0]]"] ;
319 -> 320 ;
321 [label="X[296] <= 0.994\nmse = 0.008\nsamples = 24\nvalue = [[0.0]\n[0.0]\n[0.0]\n[0.042]\n[0.0]\n[0.958]\n[0.0]\n[0.0]\n[0.0]\n[0.0]]"] ;
320 -> 321 ;
322 [label="mse = 0.0\nsamples = 23\nvalue = [[0.0]\n[0.0]\n[0.0]\n[0.0]\n[0.0]\n[1.0]\n[0.0]\n[0.0]\n[0.0]\n[0.0]]"] ;
321 -> 322 ;
323 [label="mse = 0.0\nsamples = 1\nvalue = [[0.0]\n[0.0]\n[0.0]\n[1.0]\n[0.0]\n[0.0]\n[0.0]\n[0.0]\n[0.0]\n[0.0]]"] ;
321 -> 323 ;
324 [label="mse = 0.0\nsamples = 1\nvalue = [[0.0]\n[0.0]\n[0.0]\n[1.0]\n[0.0]\n[0.0]\n[0.0]\n[0.0]\n[0.0]\n[0.0]]"] ;
320 -> 324 ;
325 [label="X[215] <= 0.198\nmse = 0.064\nsamples = 5\nvalue = [[0.0]\n[0.0]\n[0.4]\n[0.2]\n[0.0]\n[0.0]\n[0.0]\n[0.0]\n[0.0]\n[0.4]]"] ;
319 -> 325 ;
326 [label="mse = 0.0\nsamples = 2\nvalue = [[0.0]\n[0.0]\n[0.0]\n[0.0]\n[0.0]\n[0.0]\n[0.0]\n[0.0]\n[0.0]\n[1.0]]"] ;
325 -> 326 ;
327 [label="X[218] <= 0.498\nmse = 0.044\nsamples = 3\nvalue = [[0.0]\n[0.0]\n[0.667]\n[0.333]\n[0.0]\n[0.0]\n[0.0]\n[0.0]\n[0.0]\n[0.0]]"] ;
325 -> 327 ;
328 [label="mse = 0.0\nsamples = 2\nvalue = [[0.0]\n[0.0]\n[1.0]\n[0.0]\n[0.0]\n[0.0]\n[0.0]\n[0.0]\n[0.0]\n[0.0]]"] ;
327 -> 328 ;
329 [label="mse = 0.0\nsamples = 1\nvalue = [[0.0]\n[0.0]\n[0.0]\n[1.0]\n[0.0]\n[0.0]\n[0.0]\n[0.0]\n[0.0]\n[0.0]]"] ;
327 -> 329 ;
330 [label="X[375] <= 0.022\nmse = 0.036\nsamples = 246\nvalue = [[0.0]\n[0.033]\n[0.793]\n[0.012]\n[0.0]\n[0.012]\n[0.028]\n[0.089]\n[0.033]\n[0.0]]"] ;
272 -> 330 ;
331 [label="X[606] <= 0.033\nmse = 0.026\nsamples = 228\nvalue = [[0.0]\n[0.026]\n[0.855]\n[0.013]\n[0.0]\n[0.004]\n[0.0]\n[0.092]\n[0.009]\n[0.0]]"] ;
330 -> 331 ;
332 [label="X[181] <= 0.008\nmse = 0.05\nsamples = 82\nvalue = [[0.0]\n[0.061]\n[0.659]\n[0.012]\n[0.0]\n[0.0]\n[0.0]\n[0.256]\n[0.012]\n[0.0]]"] ;
331 -> 332 ;
333 [label="mse = 0.0\nsamples = 5\nvalue = [[0.0]\n[1.0]\n[0.0]\n[0.0]\n[0.0]\n[0.0]\n[0.0]\n[0.0]\n[0.0]\n[0.0]]"] ;
332 -> 333 ;
334 [label="X[683] <= 0.027\nmse = 0.043\nsamples = 77\nvalue = [[0.0]\n[0.0]\n[0.701]\n[0.013]\n[0.0]\n[0.0]\n[0.0]\n[0.273]\n[0.013]\n[0.0]]"] ;
332 -> 334 ;
335 [label="X[372] <= 0.069\nmse = 0.017\nsamples = 43\nvalue = [[0.0]\n[0.0]\n[0.907]\n[0.0]\n[0.0]\n[0.0]\n[0.0]\n[0.093]\n[0.0]\n[0.0]]"] ;
334 -> 335 ;
336 [label="X[152] <= 0.008\nmse = 0.009\nsamples = 41\nvalue = [[0.0]\n[0.0]\n[0.951]\n[0.0]\n[0.0]\n[0.0]\n[0.0]\n[0.049]\n[0.0]\n[0.0]]"] ;
335 -> 336 ;
337 [label="mse = 0.0\nsamples = 1\nvalue = [[0.0]\n[0.0]\n[0.0]\n[0.0]\n[0.0]\n[0.0]\n[0.0]\n[1.0]\n[0.0]\n[0.0]]"] ;
336 -> 337 ;
338 [label="X[572] <= 0.998\nmse = 0.005\nsamples = 40\nvalue = [[0.0]\n[0.0]\n[0.975]\n[0.0]\n[0.0]\n[0.0]\n[0.0]\n[0.025]\n[0.0]\n[0.0]]"] ;
336 -> 338 ;
339 [label="mse = 0.0\nsamples = 39\nvalue = [[0.0]\n[0.0]\n[1.0]\n[0.0]\n[0.0]\n[0.0]\n[0.0]\n[0.0]\n[0.0]\n[0.0]]"] ;
338 -> 339 ;
340 [label="mse = 0.0\nsamples = 1\nvalue = [[0.0]\n[0.0]\n[0.0]\n[0.0]\n[0.0]\n[0.0]\n[0.0]\n[1.0]\n[0.0]\n[0.0]]"] ;
338 -> 340 ;
341 [label="mse = 0.0\nsamples = 2\nvalue = [[0.0]\n[0.0]\n[0.0]\n[0.0]\n[0.0]\n[0.0]\n[0.0]\n[1.0]\n[0.0]\n[0.0]]"] ;
335 -> 341 ;
342 [label="X[661] <= 0.369\nmse = 0.055\nsamples = 34\nvalue = [[0.0]\n[0.0]\n[0.441]\n[0.029]\n[0.0]\n[0.0]\n[0.0]\n[0.5]\n[0.029]\n[0.0]]"] ;
334 -> 342 ;
343 [label="X[156] <= 0.963\nmse = 0.048\nsamples = 25\nvalue = [[0.0]\n[0.0]\n[0.24]\n[0.04]\n[0.0]\n[0.0]\n[0.0]\n[0.68]\n[0.04]\n[0.0]]"] ;
342 -> 343 ;
344 [label="X[524] <= 0.176\nmse = 0.019\nsamples = 19\nvalue = [[0.0]\n[0.0]\n[0.105]\n[0.0]\n[0.0]\n[0.0]\n[0.0]\n[0.895]\n[0.0]\n[0.0]]"] ;
343 -> 344 ;
345 [label="mse = 0.0\nsamples = 17\nvalue = [[0.0]\n[0.0]\n[0.0]\n[0.0]\n[0.0]\n[0.0]\n[0.0]\n[1.0]\n[0.0]\n[0.0]]"] ;
344 -> 345 ;
346 [label="mse = 0.0\nsamples = 2\nvalue = [[0.0]\n[0.0]\n[1.0]\n[0.0]\n[0.0]\n[0.0]\n[0.0]\n[0.0]\n[0.0]\n[0.0]]"] ;
344 -> 346 ;
347 [label="X[463] <= 0.994\nmse = 0.05\nsamples = 6\nvalue = [[0.0]\n[0.0]\n[0.667]\n[0.167]\n[0.0]\n[0.0]\n[0.0]\n[0.0]\n[0.167]\n[0.0]]"] ;
343 -> 347 ;
348 [label="mse = 0.0\nsamples = 4\nvalue = [[0.0]\n[0.0]\n[1.0]\n[0.0]\n[0.0]\n[0.0]\n[0.0]\n[0.0]\n[0.0]\n[0.0]]"] ;
347 -> 348 ;
349 [label="X[546] <= 0.5\nmse = 0.05\nsamples = 2\nvalue = [[0.0]\n[0.0]\n[0.0]\n[0.5]\n[0.0]\n[0.0]\n[0.0]\n[0.0]\n[0.5]\n[0.0]]"] ;
347 -> 349 ;
350 [label="mse = 0.0\nsamples = 1\nvalue = [[0.0]\n[0.0]\n[0.0]\n[0.0]\n[0.0]\n[0.0]\n[0.0]\n[0.0]\n[1.0]\n[0.0]]"] ;
349 -> 350 ;
351 [label="mse = 0.0\nsamples = 1\nvalue = [[0.0]\n[0.0]\n[0.0]\n[1.0]\n[0.0]\n[0.0]\n[0.0]\n[0.0]\n[0.0]\n[0.0]]"] ;
349 -> 351 ;
352 [label="mse = 0.0\nsamples = 9\nvalue = [[0.0]\n[0.0]\n[1.0]\n[0.0]\n[0.0]\n[0.0]\n[0.0]\n[0.0]\n[0.0]\n[0.0]]"] ;
342 -> 352 ;
353 [label="X[321] <= 0.308\nmse = 0.007\nsamples = 146\nvalue = [[0.0]\n[0.007]\n[0.966]\n[0.014]\n[0.0]\n[0.007]\n[0.0]\n[0.0]\n[0.007]\n[0.0]]"] ;
331 -> 353 ;
354 [label="X[100] <= 0.402\nmse = 0.003\nsamples = 143\nvalue = [[0.0]\n[0.007]\n[0.986]\n[0.007]\n[0.0]\n[0.0]\n[0.0]\n[0.0]\n[0.0]\n[0.0]]"] ;
353 -> 354 ;
355 [label="X[345] <= 0.99\nmse = 0.001\nsamples = 142\nvalue = [[0.0]\n[0.0]\n[0.993]\n[0.007]\n[0.0]\n[0.0]\n[0.0]\n[0.0]\n[0.0]\n[0.0]]"] ;
354 -> 355 ;
356 [label="mse = 0.0\nsamples = 140\nvalue = [[0.0]\n[0.0]\n[1.0]\n[0.0]\n[0.0]\n[0.0]\n[0.0]\n[0.0]\n[0.0]\n[0.0]]"] ;
355 -> 356 ;
357 [label="X[354] <= 0.675\nmse = 0.05\nsamples = 2\nvalue = [[0.0]\n[0.0]\n[0.5]\n[0.5]\n[0.0]\n[0.0]\n[0.0]\n[0.0]\n[0.0]\n[0.0]]"] ;
355 -> 357 ;
358 [label="mse = 0.0\nsamples = 1\nvalue = [[0.0]\n[0.0]\n[0.0]\n[1.0]\n[0.0]\n[0.0]\n[0.0]\n[0.0]\n[0.0]\n[0.0]]"] ;
357 -> 358 ;
359 [label="mse = 0.0\nsamples = 1\nvalue = [[0.0]\n[0.0]\n[1.0]\n[0.0]\n[0.0]\n[0.0]\n[0.0]\n[0.0]\n[0.0]\n[0.0]]"] ;
357 -> 359 ;
360 [label="mse = 0.0\nsamples = 1\nvalue = [[0.0]\n[1.0]\n[0.0]\n[0.0]\n[0.0]\n[0.0]\n[0.0]\n[0.0]\n[0.0]\n[0.0]]"] ;
354 -> 360 ;
361 [label="X[351] <= 0.161\nmse = 0.067\nsamples = 3\nvalue = [[0.0]\n[0.0]\n[0.0]\n[0.333]\n[0.0]\n[0.333]\n[0.0]\n[0.0]\n[0.333]\n[0.0]]"] ;
353 -> 361 ;
362 [label="mse = 0.0\nsamples = 1\nvalue = [[0.0]\n[0.0]\n[0.0]\n[0.0]\n[0.0]\n[1.0]\n[0.0]\n[0.0]\n[0.0]\n[0.0]]"] ;
361 -> 362 ;
363 [label="X[524] <= 0.424\nmse = 0.05\nsamples = 2\nvalue = [[0.0]\n[0.0]\n[0.0]\n[0.5]\n[0.0]\n[0.0]\n[0.0]\n[0.0]\n[0.5]\n[0.0]]"] ;
361 -> 363 ;
364 [label="mse = 0.0\nsamples = 1\nvalue = [[0.0]\n[0.0]\n[0.0]\n[0.0]\n[0.0]\n[0.0]\n[0.0]\n[0.0]\n[1.0]\n[0.0]]"] ;
363 -> 364 ;
365 [label="mse = 0.0\nsamples = 1\nvalue = [[0.0]\n[0.0]\n[0.0]\n[1.0]\n[0.0]\n[0.0]\n[0.0]\n[0.0]\n[0.0]\n[0.0]]"] ;
363 -> 365 ;
366 [label="X[346] <= 0.049\nmse = 0.071\nsamples = 18\nvalue = [[0.0]\n[0.111]\n[0.0]\n[0.0]\n[0.0]\n[0.111]\n[0.389]\n[0.056]\n[0.333]\n[0.0]]"] ;
330 -> 366 ;
367 [label="mse = 0.0\nsamples = 7\nvalue = [[0.0]\n[0.0]\n[0.0]\n[0.0]\n[0.0]\n[0.0]\n[1.0]\n[0.0]\n[0.0]\n[0.0]]"] ;
366 -> 367 ;
368 [label="X[154] <= 0.945\nmse = 0.063\nsamples = 11\nvalue = [[0.0]\n[0.182]\n[0.0]\n[0.0]\n[0.0]\n[0.182]\n[0.0]\n[0.091]\n[0.545]\n[0.0]]"] ;
366 -> 368 ;
369 [label="mse = 0.0\nsamples = 6\nvalue = [[0.0]\n[0.0]\n[0.0]\n[0.0]\n[0.0]\n[0.0]\n[0.0]\n[0.0]\n[1.0]\n[0.0]]"] ;
368 -> 369 ;
370 [label="X[184] <= 0.027\nmse = 0.064\nsamples = 5\nvalue = [[0.0]\n[0.4]\n[0.0]\n[0.0]\n[0.0]\n[0.4]\n[0.0]\n[0.2]\n[0.0]\n[0.0]]"] ;
368 -> 370 ;
371 [label="mse = 0.0\nsamples = 2\nvalue = [[0.0]\n[1.0]\n[0.0]\n[0.0]\n[0.0]\n[0.0]\n[0.0]\n[0.0]\n[0.0]\n[0.0]]"] ;
370 -> 371 ;
372 [label="X[354] <= 0.041\nmse = 0.044\nsamples = 3\nvalue = [[0.0]\n[0.0]\n[0.0]\n[0.0]\n[0.0]\n[0.667]\n[0.0]\n[0.333]\n[0.0]\n[0.0]]"] ;
370 -> 372 ;
373 [label="mse = 0.0\nsamples = 1\nvalue = [[0.0]\n[0.0]\n[0.0]\n[0.0]\n[0.0]\n[0.0]\n[0.0]\n[1.0]\n[0.0]\n[0.0]]"] ;
372 -> 373 ;
374 [label="mse = 0.0\nsamples = 2\nvalue = [[0.0]\n[0.0]\n[0.0]\n[0.0]\n[0.0]\n[1.0]\n[0.0]\n[0.0]\n[0.0]\n[0.0]]"] ;
372 -> 374 ;
375 [label="X[408] <= 0.004\nmse = 0.014\nsamples = 97\nvalue = [[0.928]\n[0.0]\n[0.021]\n[0.021]\n[0.0]\n[0.0]\n[0.01]\n[0.0]\n[0.0]\n[0.021]]"] ;
271 -> 375 ;
376 [label="mse = 0.0\nsamples = 90\nvalue = [[1.0]\n[0.0]\n[0.0]\n[0.0]\n[0.0]\n[0.0]\n[0.0]\n[0.0]\n[0.0]\n[0.0]]"] ;
375 -> 376 ;
377 [label="X[271] <= 0.618\nmse = 0.073\nsamples = 7\nvalue = [[0.0]\n[0.0]\n[0.286]\n[0.286]\n[0.0]\n[0.0]\n[0.143]\n[0.0]\n[0.0]\n[0.286]]"] ;
375 -> 377 ;
378 [label="X[517] <= 0.045\nmse = 0.064\nsamples = 5\nvalue = [[0.0]\n[0.0]\n[0.0]\n[0.4]\n[0.0]\n[0.0]\n[0.2]\n[0.0]\n[0.0]\n[0.4]]"] ;
377 -> 378 ;
379 [label="mse = 0.0\nsamples = 2\nvalue = [[0.0]\n[0.0]\n[0.0]\n[1.0]\n[0.0]\n[0.0]\n[0.0]\n[0.0]\n[0.0]\n[0.0]]"] ;
378 -> 379 ;
380 [label="X[398] <= 0.961\nmse = 0.044\nsamples = 3\nvalue = [[0.0]\n[0.0]\n[0.0]\n[0.0]\n[0.0]\n[0.0]\n[0.333]\n[0.0]\n[0.0]\n[0.667]]"] ;
378 -> 380 ;
381 [label="mse = 0.0\nsamples = 2\nvalue = [[0.0]\n[0.0]\n[0.0]\n[0.0]\n[0.0]\n[0.0]\n[0.0]\n[0.0]\n[0.0]\n[1.0]]"] ;
380 -> 381 ;
382 [label="mse = 0.0\nsamples = 1\nvalue = [[0.0]\n[0.0]\n[0.0]\n[0.0]\n[0.0]\n[0.0]\n[1.0]\n[0.0]\n[0.0]\n[0.0]]"] ;
380 -> 382 ;
383 [label="mse = 0.0\nsamples = 2\nvalue = [[0.0]\n[0.0]\n[1.0]\n[0.0]\n[0.0]\n[0.0]\n[0.0]\n[0.0]\n[0.0]\n[0.0]]"] ;
377 -> 383 ;
384 [label="X[211] <= 0.037\nmse = 0.078\nsamples = 1169\nvalue = [[0.057]\n[0.0]\n[0.082]\n[0.008]\n[0.251]\n[0.025]\n[0.116]\n[0.106]\n[0.004]\n[0.35]]"] ;
4 -> 384 ;
385 [label="X[487] <= 0.531\nmse = 0.068\nsamples = 502\nvalue = [[0.042]\n[0.0]\n[0.078]\n[0.0]\n[0.492]\n[0.026]\n[0.245]\n[0.064]\n[0.002]\n[0.052]]"] ;
384 -> 385 ;
386 [label="X[543] <= 0.671\nmse = 0.064\nsamples = 186\nvalue = [[0.091]\n[0.0]\n[0.048]\n[0.0]\n[0.124]\n[0.038]\n[0.57]\n[0.075]\n[0.0]\n[0.054]]"] ;
385 -> 386 ;
387 [label="X[267] <= 0.261\nmse = 0.084\nsamples = 72\nvalue = [[0.194]\n[0.0]\n[0.097]\n[0.0]\n[0.194]\n[0.042]\n[0.153]\n[0.194]\n[0.0]\n[0.125]]"] ;
386 -> 387 ;
388 [label="X[464] <= 0.002\nmse = 0.079\nsamples = 51\nvalue = [[0.275]\n[0.0]\n[0.137]\n[0.0]\n[0.255]\n[0.059]\n[0.216]\n[0.0]\n[0.0]\n[0.059]]"] ;
387 -> 388 ;
389 [label="X[344] <= 0.294\nmse = 0.056\nsamples = 22\nvalue = [[0.636]\n[0.0]\n[0.091]\n[0.0]\n[0.045]\n[0.136]\n[0.091]\n[0.0]\n[0.0]\n[0.0]]"] ;
388 -> 389 ;
390 [label="X[489] <= 0.022\nmse = 0.061\nsamples = 6\nvalue = [[0.0]\n[0.0]\n[0.333]\n[0.0]\n[0.167]\n[0.5]\n[0.0]\n[0.0]\n[0.0]\n[0.0]]"] ;
389 -> 390 ;
391 [label="mse = 0.0\nsamples = 3\nvalue = [[0.0]\n[0.0]\n[0.0]\n[0.0]\n[0.0]\n[1.0]\n[0.0]\n[0.0]\n[0.0]\n[0.0]]"] ;
390 -> 391 ;
392 [label="X[665] <= 0.114\nmse = 0.044\nsamples = 3\nvalue = [[0.0]\n[0.0]\n[0.667]\n[0.0]\n[0.333]\n[0.0]\n[0.0]\n[0.0]\n[0.0]\n[0.0]]"] ;
390 -> 392 ;
393 [label="mse = 0.0\nsamples = 2\nvalue = [[0.0]\n[0.0]\n[1.0]\n[0.0]\n[0.0]\n[0.0]\n[0.0]\n[0.0]\n[0.0]\n[0.0]]"] ;
392 -> 393 ;
394 [label="mse = 0.0\nsamples = 1\nvalue = [[0.0]\n[0.0]\n[0.0]\n[0.0]\n[1.0]\n[0.0]\n[0.0]\n[0.0]\n[0.0]\n[0.0]]"] ;
392 -> 394 ;
395 [label="X[491] <= 0.32\nmse = 0.022\nsamples = 16\nvalue = [[0.875]\n[0.0]\n[0.0]\n[0.0]\n[0.0]\n[0.0]\n[0.125]\n[0.0]\n[0.0]\n[0.0]]"] ;
389 -> 395 ;
396 [label="mse = 0.0\nsamples = 14\nvalue = [[1.0]\n[0.0]\n[0.0]\n[0.0]\n[0.0]\n[0.0]\n[0.0]\n[0.0]\n[0.0]\n[0.0]]"] ;
395 -> 396 ;
397 [label="mse = 0.0\nsamples = 2\nvalue = [[0.0]\n[0.0]\n[0.0]\n[0.0]\n[0.0]\n[0.0]\n[1.0]\n[0.0]\n[0.0]\n[0.0]]"] ;
395 -> 397 ;
398 [label="X[469] <= 0.049\nmse = 0.069\nsamples = 29\nvalue = [[0.0]\n[0.0]\n[0.172]\n[0.0]\n[0.414]\n[0.0]\n[0.31]\n[0.0]\n[0.0]\n[0.103]]"] ;
388 -> 398 ;
399 [label="X[156] <= 0.188\nmse = 0.049\nsamples = 17\nvalue = [[0.0]\n[0.0]\n[0.294]\n[0.0]\n[0.647]\n[0.0]\n[0.0]\n[0.0]\n[0.0]\n[0.059]]"] ;
398 -> 399 ;
400 [label="mse = 0.0\nsamples = 11\nvalue = [[0.0]\n[0.0]\n[0.0]\n[0.0]\n[1.0]\n[0.0]\n[0.0]\n[0.0]\n[0.0]\n[0.0]]"] ;
399 -> 400 ;
401 [label="X[455] <= 0.702\nmse = 0.028\nsamples = 6\nvalue = [[0.0]\n[0.0]\n[0.833]\n[0.0]\n[0.0]\n[0.0]\n[0.0]\n[0.0]\n[0.0]\n[0.167]]"] ;
399 -> 401 ;
402 [label="mse = 0.0\nsamples = 5\nvalue = [[0.0]\n[0.0]\n[1.0]\n[0.0]\n[0.0]\n[0.0]\n[0.0]\n[0.0]\n[0.0]\n[0.0]]"] ;
401 -> 402 ;
403 [label="mse = 0.0\nsamples = 1\nvalue = [[0.0]\n[0.0]\n[0.0]\n[0.0]\n[0.0]\n[0.0]\n[0.0]\n[0.0]\n[0.0]\n[1.0]]"] ;
401 -> 403 ;
404 [label="X[435] <= 0.076\nmse = 0.04\nsamples = 12\nvalue = [[0.0]\n[0.0]\n[0.0]\n[0.0]\n[0.083]\n[0.0]\n[0.75]\n[0.0]\n[0.0]\n[0.167]]"] ;
398 -> 404 ;
405 [label="X[439] <= 0.414\nmse = 0.044\nsamples = 3\nvalue = [[0.0]\n[0.0]\n[0.0]\n[0.0]\n[0.333]\n[0.0]\n[0.0]\n[0.0]\n[0.0]\n[0.667]]"] ;
404 -> 405 ;
406 [label="mse = 0.0\nsamples = 1\nvalue = [[0.0]\n[0.0]\n[0.0]\n[0.0]\n[1.0]\n[0.0]\n[0.0]\n[0.0]\n[0.0]\n[0.0]]"] ;
405 -> 406 ;
407 [label="mse = 0.0\nsamples = 2\nvalue = [[0.0]\n[0.0]\n[0.0]\n[0.0]\n[0.0]\n[0.0]\n[0.0]\n[0.0]\n[0.0]\n[1.0]]"] ;
405 -> 407 ;
408 [label="mse = 0.0\nsamples = 9\nvalue = [[0.0]\n[0.0]\n[0.0]\n[0.0]\n[0.0]\n[0.0]\n[1.0]\n[0.0]\n[0.0]\n[0.0]]"] ;
404 -> 408 ;
409 [label="X[487] <= 0.025\nmse = 0.047\nsamples = 21\nvalue = [[0.0]\n[0.0]\n[0.0]\n[0.0]\n[0.048]\n[0.0]\n[0.0]\n[0.667]\n[0.0]\n[0.286]]"] ;
387 -> 409 ;
410 [label="mse = 0.0\nsamples = 13\nvalue = [[0.0]\n[0.0]\n[0.0]\n[0.0]\n[0.0]\n[0.0]\n[0.0]\n[1.0]\n[0.0]\n[0.0]]"] ;
409 -> 410 ;
411 [label="X[240] <= 0.908\nmse = 0.041\nsamples = 8\nvalue = [[0.0]\n[0.0]\n[0.0]\n[0.0]\n[0.125]\n[0.0]\n[0.0]\n[0.125]\n[0.0]\n[0.75]]"] ;
409 -> 411 ;
412 [label="mse = 0.0\nsamples = 6\nvalue = [[0.0]\n[0.0]\n[0.0]\n[0.0]\n[0.0]\n[0.0]\n[0.0]\n[0.0]\n[0.0]\n[1.0]]"] ;
411 -> 412 ;
413 [label="X[298] <= 0.482\nmse = 0.05\nsamples = 2\nvalue = [[0.0]\n[0.0]\n[0.0]\n[0.0]\n[0.5]\n[0.0]\n[0.0]\n[0.5]\n[0.0]\n[0.0]]"] ;
411 -> 413 ;
414 [label="mse = 0.0\nsamples = 1\nvalue = [[0.0]\n[0.0]\n[0.0]\n[0.0]\n[1.0]\n[0.0]\n[0.0]\n[0.0]\n[0.0]\n[0.0]]"] ;
413 -> 414 ;
415 [label="mse = 0.0\nsamples = 1\nvalue = [[0.0]\n[0.0]\n[0.0]\n[0.0]\n[0.0]\n[0.0]\n[0.0]\n[1.0]\n[0.0]\n[0.0]]"] ;
413 -> 415 ;
416 [label="X[242] <= 0.129\nmse = 0.03\nsamples = 114\nvalue = [[0.026]\n[0.0]\n[0.018]\n[0.0]\n[0.079]\n[0.035]\n[0.833]\n[0.0]\n[0.0]\n[0.009]]"] ;
386 -> 416 ;
417 [label="X[293] <= 0.288\nmse = 0.016\nsamples = 103\nvalue = [[0.019]\n[0.0]\n[0.0]\n[0.0]\n[0.049]\n[0.019]\n[0.913]\n[0.0]\n[0.0]\n[0.0]]"] ;
416 -> 417 ;
418 [label="X[661] <= 0.02\nmse = 0.008\nsamples = 98\nvalue = [[0.0]\n[0.0]\n[0.0]\n[0.0]\n[0.041]\n[0.0]\n[0.959]\n[0.0]\n[0.0]\n[0.0]]"] ;
417 -> 418 ;
419 [label="X[164] <= 0.5\nmse = 0.004\nsamples = 96\nvalue = [[0.0]\n[0.0]\n[0.0]\n[0.0]\n[0.021]\n[0.0]\n[0.979]\n[0.0]\n[0.0]\n[0.0]]"] ;
418 -> 419 ;
420 [label="X[467] <= 0.994\nmse = 0.002\nsamples = 95\nvalue = [[0.0]\n[0.0]\n[0.0]\n[0.0]\n[0.011]\n[0.0]\n[0.989]\n[0.0]\n[0.0]\n[0.0]]"] ;
419 -> 420 ;
421 [label="mse = 0.0\nsamples = 92\nvalue = [[0.0]\n[0.0]\n[0.0]\n[0.0]\n[0.0]\n[0.0]\n[1.0]\n[0.0]\n[0.0]\n[0.0]]"] ;
420 -> 421 ;
422 [label="X[575] <= 0.173\nmse = 0.044\nsamples = 3\nvalue = [[0.0]\n[0.0]\n[0.0]\n[0.0]\n[0.333]\n[0.0]\n[0.667]\n[0.0]\n[0.0]\n[0.0]]"] ;
420 -> 422 ;
423 [label="mse = 0.0\nsamples = 1\nvalue = [[0.0]\n[0.0]\n[0.0]\n[0.0]\n[1.0]\n[0.0]\n[0.0]\n[0.0]\n[0.0]\n[0.0]]"] ;
422 -> 423 ;
424 [label="mse = 0.0\nsamples = 2\nvalue = [[0.0]\n[0.0]\n[0.0]\n[0.0]\n[0.0]\n[0.0]\n[1.0]\n[0.0]\n[0.0]\n[0.0]]"] ;
422 -> 424 ;
425 [label="mse = 0.0\nsamples = 1\nvalue = [[0.0]\n[0.0]\n[0.0]\n[0.0]\n[1.0]\n[0.0]\n[0.0]\n[0.0]\n[0.0]\n[0.0]]"] ;
419 -> 425 ;
426 [label="mse = 0.0\nsamples = 2\nvalue = [[0.0]\n[0.0]\n[0.0]\n[0.0]\n[1.0]\n[0.0]\n[0.0]\n[0.0]\n[0.0]\n[0.0]]"] ;
418 -> 426 ;
427 [label="X[512] <= 0.71\nmse = 0.064\nsamples = 5\nvalue = [[0.4]\n[0.0]\n[0.0]\n[0.0]\n[0.2]\n[0.4]\n[0.0]\n[0.0]\n[0.0]\n[0.0]]"] ;
417 -> 427 ;
428 [label="mse = 0.0\nsamples = 2\nvalue = [[0.0]\n[0.0]\n[0.0]\n[0.0]\n[0.0]\n[1.0]\n[0.0]\n[0.0]\n[0.0]\n[0.0]]"] ;
427 -> 428 ;
429 [label="X[436] <= 0.494\nmse = 0.044\nsamples = 3\nvalue = [[0.667]\n[0.0]\n[0.0]\n[0.0]\n[0.333]\n[0.0]\n[0.0]\n[0.0]\n[0.0]\n[0.0]]"] ;
427 -> 429 ;
430 [label="mse = 0.0\nsamples = 2\nvalue = [[1.0]\n[0.0]\n[0.0]\n[0.0]\n[0.0]\n[0.0]\n[0.0]\n[0.0]\n[0.0]\n[0.0]]"] ;
429 -> 430 ;
431 [label="mse = 0.0\nsamples = 1\nvalue = [[0.0]\n[0.0]\n[0.0]\n[0.0]\n[1.0]\n[0.0]\n[0.0]\n[0.0]\n[0.0]\n[0.0]]"] ;
429 -> 431 ;
432 [label="X[344] <= 0.741\nmse = 0.078\nsamples = 11\nvalue = [[0.091]\n[0.0]\n[0.182]\n[0.0]\n[0.364]\n[0.182]\n[0.091]\n[0.0]\n[0.0]\n[0.091]]"] ;
416 -> 432 ;
433 [label="X[152] <= 0.098\nmse = 0.072\nsamples = 6\nvalue = [[0.167]\n[0.0]\n[0.333]\n[0.0]\n[0.0]\n[0.333]\n[0.0]\n[0.0]\n[0.0]\n[0.167]]"] ;
432 -> 433 ;
434 [label="X[604] <= 0.163\nmse = 0.063\nsamples = 4\nvalue = [[0.25]\n[0.0]\n[0.0]\n[0.0]\n[0.0]\n[0.5]\n[0.0]\n[0.0]\n[0.0]\n[0.25]]"] ;
433 -> 434 ;
435 [label="mse = 0.0\nsamples = 2\nvalue = [[0.0]\n[0.0]\n[0.0]\n[0.0]\n[0.0]\n[1.0]\n[0.0]\n[0.0]\n[0.0]\n[0.0]]"] ;
434 -> 435 ;
436 [label="X[323] <= 0.014\nmse = 0.05\nsamples = 2\nvalue = [[0.5]\n[0.0]\n[0.0]\n[0.0]\n[0.0]\n[0.0]\n[0.0]\n[0.0]\n[0.0]\n[0.5]]"] ;
434 -> 436 ;
437 [label="mse = 0.0\nsamples = 1\nvalue = [[0.0]\n[0.0]\n[0.0]\n[0.0]\n[0.0]\n[0.0]\n[0.0]\n[0.0]\n[0.0]\n[1.0]]"] ;
436 -> 437 ;
438 [label="mse = 0.0\nsamples = 1\nvalue = [[1.0]\n[0.0]\n[0.0]\n[0.0]\n[0.0]\n[0.0]\n[0.0]\n[0.0]\n[0.0]\n[0.0]]"] ;
436 -> 438 ;
439 [label="mse = 0.0\nsamples = 2\nvalue = [[0.0]\n[0.0]\n[1.0]\n[0.0]\n[0.0]\n[0.0]\n[0.0]\n[0.0]\n[0.0]\n[0.0]]"] ;
433 -> 439 ;
440 [label="X[351] <= 0.629\nmse = 0.032\nsamples = 5\nvalue = [[0.0]\n[0.0]\n[0.0]\n[0.0]\n[0.8]\n[0.0]\n[0.2]\n[0.0]\n[0.0]\n[0.0]]"] ;
432 -> 440 ;
441 [label="mse = 0.0\nsamples = 4\nvalue = [[0.0]\n[0.0]\n[0.0]\n[0.0]\n[1.0]\n[0.0]\n[0.0]\n[0.0]\n[0.0]\n[0.0]]"] ;
440 -> 441 ;
442 [label="mse = 0.0\nsamples = 1\nvalue = [[0.0]\n[0.0]\n[0.0]\n[0.0]\n[0.0]\n[0.0]\n[1.0]\n[0.0]\n[0.0]\n[0.0]]"] ;
440 -> 442 ;
443 [label="X[399] <= 0.006\nmse = 0.048\nsamples = 316\nvalue = [[0.013]\n[0.0]\n[0.095]\n[0.0]\n[0.709]\n[0.019]\n[0.054]\n[0.057]\n[0.003]\n[0.051]]"] ;
385 -> 443 ;
444 [label="X[429] <= 0.227\nmse = 0.072\nsamples = 70\nvalue = [[0.014]\n[0.0]\n[0.414]\n[0.0]\n[0.229]\n[0.0]\n[0.029]\n[0.229]\n[0.014]\n[0.071]]"] ;
443 -> 444 ;
445 [label="X[268] <= 0.582\nmse = 0.064\nsamples = 56\nvalue = [[0.018]\n[0.0]\n[0.518]\n[0.0]\n[0.054]\n[0.0]\n[0.018]\n[0.286]\n[0.018]\n[0.089]]"] ;
444 -> 445 ;
446 [label="X[397] <= 0.273\nmse = 0.045\nsamples = 37\nvalue = [[0.027]\n[0.0]\n[0.73]\n[0.0]\n[0.081]\n[0.0]\n[0.027]\n[0.054]\n[0.0]\n[0.081]]"] ;
445 -> 446 ;
447 [label="X[681] <= 0.027\nmse = 0.024\nsamples = 31\nvalue = [[0.0]\n[0.0]\n[0.871]\n[0.0]\n[0.0]\n[0.0]\n[0.032]\n[0.065]\n[0.0]\n[0.032]]"] ;
446 -> 447 ;
448 [label="X[347] <= 0.153\nmse = 0.013\nsamples = 29\nvalue = [[0.0]\n[0.0]\n[0.931]\n[0.0]\n[0.0]\n[0.0]\n[0.034]\n[0.0]\n[0.0]\n[0.034]]"] ;
447 -> 448 ;
449 [label="mse = 0.0\nsamples = 27\nvalue = [[0.0]\n[0.0]\n[1.0]\n[0.0]\n[0.0]\n[0.0]\n[0.0]\n[0.0]\n[0.0]\n[0.0]]"] ;
448 -> 449 ;
450 [label="X[489] <= 0.169\nmse = 0.05\nsamples = 2\nvalue = [[0.0]\n[0.0]\n[0.0]\n[0.0]\n[0.0]\n[0.0]\n[0.5]\n[0.0]\n[0.0]\n[0.5]]"] ;
448 -> 450 ;
451 [label="mse = 0.0\nsamples = 1\nvalue = [[0.0]\n[0.0]\n[0.0]\n[0.0]\n[0.0]\n[0.0]\n[1.0]\n[0.0]\n[0.0]\n[0.0]]"] ;
450 -> 451 ;
452 [label="mse = 0.0\nsamples = 1\nvalue = [[0.0]\n[0.0]\n[0.0]\n[0.0]\n[0.0]\n[0.0]\n[0.0]\n[0.0]\n[0.0]\n[1.0]]"] ;
450 -> 452 ;
453 [label="mse = 0.0\nsamples = 2\nvalue = [[0.0]\n[0.0]\n[0.0]\n[0.0]\n[0.0]\n[0.0]\n[0.0]\n[1.0]\n[0.0]\n[0.0]]"] ;
447 -> 453 ;
454 [label="X[355] <= 0.773\nmse = 0.061\nsamples = 6\nvalue = [[0.167]\n[0.0]\n[0.0]\n[0.0]\n[0.5]\n[0.0]\n[0.0]\n[0.0]\n[0.0]\n[0.333]]"] ;
446 -> 454 ;
455 [label="X[397] <= 0.835\nmse = 0.044\nsamples = 3\nvalue = [[0.333]\n[0.0]\n[0.0]\n[0.0]\n[0.0]\n[0.0]\n[0.0]\n[0.0]\n[0.0]\n[0.667]]"] ;
454 -> 455 ;
456 [label="mse = 0.0\nsamples = 2\nvalue = [[0.0]\n[0.0]\n[0.0]\n[0.0]\n[0.0]\n[0.0]\n[0.0]\n[0.0]\n[0.0]\n[1.0]]"] ;
455 -> 456 ;
457 [label="mse = 0.0\nsamples = 1\nvalue = [[1.0]\n[0.0]\n[0.0]\n[0.0]\n[0.0]\n[0.0]\n[0.0]\n[0.0]\n[0.0]\n[0.0]]"] ;
455 -> 457 ;
458 [label="mse = 0.0\nsamples = 3\nvalue = [[0.0]\n[0.0]\n[0.0]\n[0.0]\n[1.0]\n[0.0]\n[0.0]\n[0.0]\n[0.0]\n[0.0]]"] ;
454 -> 458 ;
459 [label="X[453] <= 0.1\nmse = 0.043\nsamples = 19\nvalue = [[0.0]\n[0.0]\n[0.105]\n[0.0]\n[0.0]\n[0.0]\n[0.0]\n[0.737]\n[0.053]\n[0.105]]"] ;
445 -> 459 ;
460 [label="X[265] <= 0.147\nmse = 0.012\nsamples = 15\nvalue = [[0.0]\n[0.0]\n[0.0]\n[0.0]\n[0.0]\n[0.0]\n[0.0]\n[0.933]\n[0.067]\n[0.0]]"] ;
459 -> 460 ;
461 [label="mse = 0.0\nsamples = 1\nvalue = [[0.0]\n[0.0]\n[0.0]\n[0.0]\n[0.0]\n[0.0]\n[0.0]\n[0.0]\n[1.0]\n[0.0]]"] ;
460 -> 461 ;
462 [label="mse = 0.0\nsamples = 14\nvalue = [[0.0]\n[0.0]\n[0.0]\n[0.0]\n[0.0]\n[0.0]\n[0.0]\n[1.0]\n[0.0]\n[0.0]]"] ;
460 -> 462 ;
463 [label="X[509] <= 0.118\nmse = 0.05\nsamples = 4\nvalue = [[0.0]\n[0.0]\n[0.5]\n[0.0]\n[0.0]\n[0.0]\n[0.0]\n[0.0]\n[0.0]\n[0.5]]"] ;
459 -> 463 ;
464 [label="mse = 0.0\nsamples = 2\nvalue = [[0.0]\n[0.0]\n[0.0]\n[0.0]\n[0.0]\n[0.0]\n[0.0]\n[0.0]\n[0.0]\n[1.0]]"] ;
463 -> 464 ;
465 [label="mse = 0.0\nsamples = 2\nvalue = [[0.0]\n[0.0]\n[1.0]\n[0.0]\n[0.0]\n[0.0]\n[0.0]\n[0.0]\n[0.0]\n[0.0]]"] ;
463 -> 465 ;
466 [label="X[383] <= 0.99\nmse = 0.013\nsamples = 14\nvalue = [[0.0]\n[0.0]\n[0.0]\n[0.0]\n[0.929]\n[0.0]\n[0.071]\n[0.0]\n[0.0]\n[0.0]]"] ;
444 -> 466 ;
467 [label="mse = 0.0\nsamples = 13\nvalue = [[0.0]\n[0.0]\n[0.0]\n[0.0]\n[1.0]\n[0.0]\n[0.0]\n[0.0]\n[0.0]\n[0.0]]"] ;
466 -> 467 ;
468 [label="mse = 0.0\nsamples = 1\nvalue = [[0.0]\n[0.0]\n[0.0]\n[0.0]\n[0.0]\n[0.0]\n[1.0]\n[0.0]\n[0.0]\n[0.0]]"] ;
466 -> 468 ;
469 [label="X[294] <= 0.173\nmse = 0.028\nsamples = 246\nvalue = [[0.012]\n[0.0]\n[0.004]\n[0.0]\n[0.846]\n[0.024]\n[0.061]\n[0.008]\n[0.0]\n[0.045]]"] ;
443 -> 469 ;
470 [label="X[96] <= 0.002\nmse = 0.018\nsamples = 228\nvalue = [[0.0]\n[0.0]\n[0.004]\n[0.0]\n[0.904]\n[0.0]\n[0.066]\n[0.0]\n[0.0]\n[0.026]]"] ;
469 -> 470 ;
471 [label="X[155] <= 0.161\nmse = 0.012\nsamples = 219\nvalue = [[0.0]\n[0.0]\n[0.005]\n[0.0]\n[0.936]\n[0.0]\n[0.032]\n[0.0]\n[0.0]\n[0.027]]"] ;
470 -> 471 ;
472 [label="X[359] <= 0.984\nmse = 0.005\nsamples = 206\nvalue = [[0.0]\n[0.0]\n[0.0]\n[0.0]\n[0.976]\n[0.0]\n[0.015]\n[0.0]\n[0.0]\n[0.01]]"] ;
471 -> 472 ;
473 [label="X[769] <= 0.125\nmse = 0.002\nsamples = 202\nvalue = [[0.0]\n[0.0]\n[0.0]\n[0.0]\n[0.99]\n[0.0]\n[0.0]\n[0.0]\n[0.0]\n[0.01]]"] ;
472 -> 473 ;
474 [label="X[717] <= 0.455\nmse = 0.001\nsamples = 201\nvalue = [[0.0]\n[0.0]\n[0.0]\n[0.0]\n[0.995]\n[0.0]\n[0.0]\n[0.0]\n[0.0]\n[0.005]]"] ;
473 -> 474 ;
475 [label="mse = 0.0\nsamples = 199\nvalue = [[0.0]\n[0.0]\n[0.0]\n[0.0]\n[1.0]\n[0.0]\n[0.0]\n[0.0]\n[0.0]\n[0.0]]"] ;
474 -> 475 ;
476 [label="X[631] <= 0.041\nmse = 0.05\nsamples = 2\nvalue = [[0.0]\n[0.0]\n[0.0]\n[0.0]\n[0.5]\n[0.0]\n[0.0]\n[0.0]\n[0.0]\n[0.5]]"] ;
474 -> 476 ;
477 [label="mse = 0.0\nsamples = 1\nvalue = [[0.0]\n[0.0]\n[0.0]\n[0.0]\n[0.0]\n[0.0]\n[0.0]\n[0.0]\n[0.0]\n[1.0]]"] ;
476 -> 477 ;
478 [label="mse = 0.0\nsamples = 1\nvalue = [[0.0]\n[0.0]\n[0.0]\n[0.0]\n[1.0]\n[0.0]\n[0.0]\n[0.0]\n[0.0]\n[0.0]]"] ;
476 -> 478 ;
479 [label="mse = 0.0\nsamples = 1\nvalue = [[0.0]\n[0.0]\n[0.0]\n[0.0]\n[0.0]\n[0.0]\n[0.0]\n[0.0]\n[0.0]\n[1.0]]"] ;
473 -> 479 ;
480 [label="X[523] <= 0.245\nmse = 0.037\nsamples = 4\nvalue = [[0.0]\n[0.0]\n[0.0]\n[0.0]\n[0.25]\n[0.0]\n[0.75]\n[0.0]\n[0.0]\n[0.0]]"] ;
472 -> 480 ;
481 [label="mse = 0.0\nsamples = 1\nvalue = [[0.0]\n[0.0]\n[0.0]\n[0.0]\n[1.0]\n[0.0]\n[0.0]\n[0.0]\n[0.0]\n[0.0]]"] ;
480 -> 481 ;
482 [label="mse = 0.0\nsamples = 3\nvalue = [[0.0]\n[0.0]\n[0.0]\n[0.0]\n[0.0]\n[0.0]\n[1.0]\n[0.0]\n[0.0]\n[0.0]]"] ;
480 -> 482 ;
483 [label="X[570] <= 0.178\nmse = 0.071\nsamples = 13\nvalue = [[0.0]\n[0.0]\n[0.077]\n[0.0]\n[0.308]\n[0.0]\n[0.308]\n[0.0]\n[0.0]\n[0.308]]"] ;
471 -> 483 ;
484 [label="X[263] <= 0.814\nmse = 0.059\nsamples = 9\nvalue = [[0.0]\n[0.0]\n[0.111]\n[0.0]\n[0.444]\n[0.0]\n[0.0]\n[0.0]\n[0.0]\n[0.444]]"] ;
483 -> 484 ;
485 [label="mse = 0.0\nsamples = 4\nvalue = [[0.0]\n[0.0]\n[0.0]\n[0.0]\n[0.0]\n[0.0]\n[0.0]\n[0.0]\n[0.0]\n[1.0]]"] ;
484 -> 485 ;
486 [label="X[653] <= 0.341\nmse = 0.032\nsamples = 5\nvalue = [[0.0]\n[0.0]\n[0.2]\n[0.0]\n[0.8]\n[0.0]\n[0.0]\n[0.0]\n[0.0]\n[0.0]]"] ;
484 -> 486 ;
487 [label="mse = 0.0\nsamples = 4\nvalue = [[0.0]\n[0.0]\n[0.0]\n[0.0]\n[1.0]\n[0.0]\n[0.0]\n[0.0]\n[0.0]\n[0.0]]"] ;
486 -> 487 ;
488 [label="mse = 0.0\nsamples = 1\nvalue = [[0.0]\n[0.0]\n[1.0]\n[0.0]\n[0.0]\n[0.0]\n[0.0]\n[0.0]\n[0.0]\n[0.0]]"] ;
486 -> 488 ;
489 [label="mse = 0.0\nsamples = 4\nvalue = [[0.0]\n[0.0]\n[0.0]\n[0.0]\n[0.0]\n[0.0]\n[1.0]\n[0.0]\n[0.0]\n[0.0]]"] ;
483 -> 489 ;
490 [label="X[400] <= 0.998\nmse = 0.02\nsamples = 9\nvalue = [[0.0]\n[0.0]\n[0.0]\n[0.0]\n[0.111]\n[0.0]\n[0.889]\n[0.0]\n[0.0]\n[0.0]]"] ;
470 -> 490 ;
491 [label="mse = 0.0\nsamples = 8\nvalue = [[0.0]\n[0.0]\n[0.0]\n[0.0]\n[0.0]\n[0.0]\n[1.0]\n[0.0]\n[0.0]\n[0.0]]"] ;
490 -> 491 ;
492 [label="mse = 0.0\nsamples = 1\nvalue = [[0.0]\n[0.0]\n[0.0]\n[0.0]\n[1.0]\n[0.0]\n[0.0]\n[0.0]\n[0.0]\n[0.0]]"] ;
490 -> 492 ;
493 [label="X[356] <= 0.327\nmse = 0.076\nsamples = 18\nvalue = [[0.167]\n[0.0]\n[0.0]\n[0.0]\n[0.111]\n[0.333]\n[0.0]\n[0.111]\n[0.0]\n[0.278]]"] ;
469 -> 493 ;
494 [label="X[492] <= 0.61\nmse = 0.069\nsamples = 13\nvalue = [[0.231]\n[0.0]\n[0.0]\n[0.0]\n[0.154]\n[0.462]\n[0.0]\n[0.154]\n[0.0]\n[0.0]]"] ;
493 -> 494 ;
495 [label="mse = 0.0\nsamples = 6\nvalue = [[0.0]\n[0.0]\n[0.0]\n[0.0]\n[0.0]\n[1.0]\n[0.0]\n[0.0]\n[0.0]\n[0.0]]"] ;
494 -> 495 ;
496 [label="X[325] <= 0.518\nmse = 0.065\nsamples = 7\nvalue = [[0.429]\n[0.0]\n[0.0]\n[0.0]\n[0.286]\n[0.0]\n[0.0]\n[0.286]\n[0.0]\n[0.0]]"] ;
494 -> 496 ;
497 [label="mse = 0.0\nsamples = 3\nvalue = [[1.0]\n[0.0]\n[0.0]\n[0.0]\n[0.0]\n[0.0]\n[0.0]\n[0.0]\n[0.0]\n[0.0]]"] ;
496 -> 497 ;
498 [label="X[233] <= 0.494\nmse = 0.05\nsamples = 4\nvalue = [[0.0]\n[0.0]\n[0.0]\n[0.0]\n[0.5]\n[0.0]\n[0.0]\n[0.5]\n[0.0]\n[0.0]]"] ;
496 -> 498 ;
499 [label="mse = 0.0\nsamples = 2\nvalue = [[0.0]\n[0.0]\n[0.0]\n[0.0]\n[1.0]\n[0.0]\n[0.0]\n[0.0]\n[0.0]\n[0.0]]"] ;
498 -> 499 ;
500 [label="mse = 0.0\nsamples = 2\nvalue = [[0.0]\n[0.0]\n[0.0]\n[0.0]\n[0.0]\n[0.0]\n[0.0]\n[1.0]\n[0.0]\n[0.0]]"] ;
498 -> 500 ;
501 [label="mse = 0.0\nsamples = 5\nvalue = [[0.0]\n[0.0]\n[0.0]\n[0.0]\n[0.0]\n[0.0]\n[0.0]\n[0.0]\n[0.0]\n[1.0]]"] ;
493 -> 501 ;
502 [label="X[427] <= 0.002\nmse = 0.063\nsamples = 667\nvalue = [[0.069]\n[0.0]\n[0.085]\n[0.013]\n[0.07]\n[0.024]\n[0.019]\n[0.138]\n[0.006]\n[0.574]]"] ;
384 -> 502 ;
503 [label="X[154] <= 0.004\nmse = 0.07\nsamples = 194\nvalue = [[0.01]\n[0.0]\n[0.284]\n[0.046]\n[0.015]\n[0.021]\n[0.01]\n[0.423]\n[0.0]\n[0.191]]"] ;
502 -> 503 ;
504 [label="X[574] <= 0.09\nmse = 0.059\nsamples = 136\nvalue = [[0.007]\n[0.0]\n[0.088]\n[0.044]\n[0.015]\n[0.015]\n[0.0]\n[0.581]\n[0.0]\n[0.25]]"] ;
503 -> 504 ;
505 [label="X[541] <= 0.571\nmse = 0.065\nsamples = 54\nvalue = [[0.0]\n[0.0]\n[0.111]\n[0.111]\n[0.019]\n[0.037]\n[0.0]\n[0.185]\n[0.0]\n[0.537]]"] ;
504 -> 505 ;
506 [label="X[259] <= 0.812\nmse = 0.057\nsamples = 48\nvalue = [[0.0]\n[0.0]\n[0.0]\n[0.125]\n[0.021]\n[0.042]\n[0.0]\n[0.208]\n[0.0]\n[0.604]]"] ;
505 -> 506 ;
507 [label="X[487] <= 0.982\nmse = 0.043\nsamples = 39\nvalue = [[0.0]\n[0.0]\n[0.0]\n[0.103]\n[0.026]\n[0.051]\n[0.0]\n[0.077]\n[0.0]\n[0.744]]"] ;
506 -> 507 ;
508 [label="X[179] <= 0.998\nmse = 0.008\nsamples = 24\nvalue = [[0.0]\n[0.0]\n[0.0]\n[0.0]\n[0.0]\n[0.0]\n[0.0]\n[0.042]\n[0.0]\n[0.958]]"] ;
507 -> 508 ;
509 [label="mse = 0.0\nsamples = 23\nvalue = [[0.0]\n[0.0]\n[0.0]\n[0.0]\n[0.0]\n[0.0]\n[0.0]\n[0.0]\n[0.0]\n[1.0]]"] ;
508 -> 509 ;
510 [label="mse = 0.0\nsamples = 1\nvalue = [[0.0]\n[0.0]\n[0.0]\n[0.0]\n[0.0]\n[0.0]\n[0.0]\n[1.0]\n[0.0]\n[0.0]]"] ;
508 -> 510 ;
511 [label="X[435] <= 0.873\nmse = 0.073\nsamples = 15\nvalue = [[0.0]\n[0.0]\n[0.0]\n[0.267]\n[0.067]\n[0.133]\n[0.0]\n[0.133]\n[0.0]\n[0.4]]"] ;
507 -> 511 ;
512 [label="X[382] <= 0.32\nmse = 0.063\nsamples = 11\nvalue = [[0.0]\n[0.0]\n[0.0]\n[0.0]\n[0.091]\n[0.182]\n[0.0]\n[0.182]\n[0.0]\n[0.545]]"] ;
511 -> 512 ;
513 [label="X[463] <= 0.91\nmse = 0.063\nsamples = 4\nvalue = [[0.0]\n[0.0]\n[0.0]\n[0.0]\n[0.25]\n[0.5]\n[0.0]\n[0.25]\n[0.0]\n[0.0]]"] ;
512 -> 513 ;
514 [label="mse = 0.0\nsamples = 2\nvalue = [[0.0]\n[0.0]\n[0.0]\n[0.0]\n[0.0]\n[1.0]\n[0.0]\n[0.0]\n[0.0]\n[0.0]]"] ;
513 -> 514 ;
515 [label="X[263] <= 0.498\nmse = 0.05\nsamples = 2\nvalue = [[0.0]\n[0.0]\n[0.0]\n[0.0]\n[0.5]\n[0.0]\n[0.0]\n[0.5]\n[0.0]\n[0.0]]"] ;
513 -> 515 ;
516 [label="mse = 0.0\nsamples = 1\nvalue = [[0.0]\n[0.0]\n[0.0]\n[0.0]\n[0.0]\n[0.0]\n[0.0]\n[1.0]\n[0.0]\n[0.0]]"] ;
515 -> 516 ;
517 [label="mse = 0.0\nsamples = 1\nvalue = [[0.0]\n[0.0]\n[0.0]\n[0.0]\n[1.0]\n[0.0]\n[0.0]\n[0.0]\n[0.0]\n[0.0]]"] ;
515 -> 517 ;
518 [label="X[463] <= 0.849\nmse = 0.024\nsamples = 7\nvalue = [[0.0]\n[0.0]\n[0.0]\n[0.0]\n[0.0]\n[0.0]\n[0.0]\n[0.143]\n[0.0]\n[0.857]]"] ;
512 -> 518 ;
519 [label="mse = 0.0\nsamples = 1\nvalue = [[0.0]\n[0.0]\n[0.0]\n[0.0]\n[0.0]\n[0.0]\n[0.0]\n[1.0]\n[0.0]\n[0.0]]"] ;
518 -> 519 ;
520 [label="mse = 0.0\nsamples = 6\nvalue = [[0.0]\n[0.0]\n[0.0]\n[0.0]\n[0.0]\n[0.0]\n[0.0]\n[0.0]\n[0.0]\n[1.0]]"] ;
518 -> 520 ;
521 [label="mse = 0.0\nsamples = 4\nvalue = [[0.0]\n[0.0]\n[0.0]\n[1.0]\n[0.0]\n[0.0]\n[0.0]\n[0.0]\n[0.0]\n[0.0]]"] ;
511 -> 521 ;
522 [label="X[494] <= 0.212\nmse = 0.035\nsamples = 9\nvalue = [[0.0]\n[0.0]\n[0.0]\n[0.222]\n[0.0]\n[0.0]\n[0.0]\n[0.778]\n[0.0]\n[0.0]]"] ;
506 -> 522 ;
523 [label="mse = 0.0\nsamples = 2\nvalue = [[0.0]\n[0.0]\n[0.0]\n[1.0]\n[0.0]\n[0.0]\n[0.0]\n[0.0]\n[0.0]\n[0.0]]"] ;
522 -> 523 ;
524 [label="mse = 0.0\nsamples = 7\nvalue = [[0.0]\n[0.0]\n[0.0]\n[0.0]\n[0.0]\n[0.0]\n[0.0]\n[1.0]\n[0.0]\n[0.0]]"] ;
522 -> 524 ;
525 [label="mse = 0.0\nsamples = 6\nvalue = [[0.0]\n[0.0]\n[1.0]\n[0.0]\n[0.0]\n[0.0]\n[0.0]\n[0.0]\n[0.0]\n[0.0]]"] ;
505 -> 525 ;
526 [label="X[373] <= 0.053\nmse = 0.028\nsamples = 82\nvalue = [[0.012]\n[0.0]\n[0.073]\n[0.0]\n[0.012]\n[0.0]\n[0.0]\n[0.841]\n[0.0]\n[0.061]]"] ;
504 -> 526 ;
527 [label="X[635] <= 0.031\nmse = 0.019\nsamples = 77\nvalue = [[0.013]\n[0.0]\n[0.078]\n[0.0]\n[0.0]\n[0.0]\n[0.0]\n[0.896]\n[0.0]\n[0.013]]"] ;
526 -> 527 ;
528 [label="X[622] <= 0.151\nmse = 0.013\nsamples = 74\nvalue = [[0.014]\n[0.0]\n[0.041]\n[0.0]\n[0.0]\n[0.0]\n[0.0]\n[0.932]\n[0.0]\n[0.014]]"] ;
527 -> 528 ;
529 [label="X[452] <= 0.024\nmse = 0.008\nsamples = 72\nvalue = [[0.014]\n[0.0]\n[0.014]\n[0.0]\n[0.0]\n[0.0]\n[0.0]\n[0.958]\n[0.0]\n[0.014]]"] ;
528 -> 529 ;
530 [label="X[556] <= 0.194\nmse = 0.003\nsamples = 70\nvalue = [[0.0]\n[0.0]\n[0.014]\n[0.0]\n[0.0]\n[0.0]\n[0.0]\n[0.986]\n[0.0]\n[0.0]]"] ;
529 -> 530 ;
531 [label="mse = 0.0\nsamples = 69\nvalue = [[0.0]\n[0.0]\n[0.0]\n[0.0]\n[0.0]\n[0.0]\n[0.0]\n[1.0]\n[0.0]\n[0.0]]"] ;
530 -> 531 ;
532 [label="mse = 0.0\nsamples = 1\nvalue = [[0.0]\n[0.0]\n[1.0]\n[0.0]\n[0.0]\n[0.0]\n[0.0]\n[0.0]\n[0.0]\n[0.0]]"] ;
530 -> 532 ;
533 [label="X[517] <= 0.494\nmse = 0.05\nsamples = 2\nvalue = [[0.5]\n[0.0]\n[0.0]\n[0.0]\n[0.0]\n[0.0]\n[0.0]\n[0.0]\n[0.0]\n[0.5]]"] ;
529 -> 533 ;
534 [label="mse = 0.0\nsamples = 1\nvalue = [[0.0]\n[0.0]\n[0.0]\n[0.0]\n[0.0]\n[0.0]\n[0.0]\n[0.0]\n[0.0]\n[1.0]]"] ;
533 -> 534 ;
535 [label="mse = 0.0\nsamples = 1\nvalue = [[1.0]\n[0.0]\n[0.0]\n[0.0]\n[0.0]\n[0.0]\n[0.0]\n[0.0]\n[0.0]\n[0.0]]"] ;
533 -> 535 ;
536 [label="mse = 0.0\nsamples = 2\nvalue = [[0.0]\n[0.0]\n[1.0]\n[0.0]\n[0.0]\n[0.0]\n[0.0]\n[0.0]\n[0.0]\n[0.0]]"] ;
528 -> 536 ;
537 [label="mse = 0.0\nsamples = 3\nvalue = [[0.0]\n[0.0]\n[1.0]\n[0.0]\n[0.0]\n[0.0]\n[0.0]\n[0.0]\n[0.0]\n[0.0]]"] ;
527 -> 537 ;
538 [label="X[243] <= 0.973\nmse = 0.032\nsamples = 5\nvalue = [[0.0]\n[0.0]\n[0.0]\n[0.0]\n[0.2]\n[0.0]\n[0.0]\n[0.0]\n[0.0]\n[0.8]]"] ;
526 -> 538 ;
539 [label="mse = 0.0\nsamples = 4\nvalue = [[0.0]\n[0.0]\n[0.0]\n[0.0]\n[0.0]\n[0.0]\n[0.0]\n[0.0]\n[0.0]\n[1.0]]"] ;
538 -> 539 ;
540 [label="mse = 0.0\nsamples = 1\nvalue = [[0.0]\n[0.0]\n[0.0]\n[0.0]\n[1.0]\n[0.0]\n[0.0]\n[0.0]\n[0.0]\n[0.0]]"] ;
538 -> 540 ;
541 [label="X[659] <= 0.006\nmse = 0.044\nsamples = 58\nvalue = [[0.017]\n[0.0]\n[0.741]\n[0.052]\n[0.017]\n[0.034]\n[0.034]\n[0.052]\n[0.0]\n[0.052]]"] ;
503 -> 541 ;
542 [label="X[347] <= 0.859\nmse = 0.018\nsamples = 41\nvalue = [[0.0]\n[0.0]\n[0.902]\n[0.0]\n[0.024]\n[0.0]\n[0.049]\n[0.024]\n[0.0]\n[0.0]]"] ;
541 -> 542 ;
543 [label="X[315] <= 0.973\nmse = 0.01\nsamples = 39\nvalue = [[0.0]\n[0.0]\n[0.949]\n[0.0]\n[0.026]\n[0.0]\n[0.0]\n[0.026]\n[0.0]\n[0.0]]"] ;
542 -> 543 ;
544 [label="X[682] <= 0.469\nmse = 0.005\nsamples = 38\nvalue = [[0.0]\n[0.0]\n[0.974]\n[0.0]\n[0.0]\n[0.0]\n[0.0]\n[0.026]\n[0.0]\n[0.0]]"] ;
543 -> 544 ;
545 [label="mse = 0.0\nsamples = 37\nvalue = [[0.0]\n[0.0]\n[1.0]\n[0.0]\n[0.0]\n[0.0]\n[0.0]\n[0.0]\n[0.0]\n[0.0]]"] ;
544 -> 545 ;
546 [label="mse = 0.0\nsamples = 1\nvalue = [[0.0]\n[0.0]\n[0.0]\n[0.0]\n[0.0]\n[0.0]\n[0.0]\n[1.0]\n[0.0]\n[0.0]]"] ;
544 -> 546 ;
547 [label="mse = 0.0\nsamples = 1\nvalue = [[0.0]\n[0.0]\n[0.0]\n[0.0]\n[1.0]\n[0.0]\n[0.0]\n[0.0]\n[0.0]\n[0.0]]"] ;
543 -> 547 ;
548 [label="mse = 0.0\nsamples = 2\nvalue = [[0.0]\n[0.0]\n[0.0]\n[0.0]\n[0.0]\n[0.0]\n[1.0]\n[0.0]\n[0.0]\n[0.0]]"] ;
542 -> 548 ;
549 [label="X[324] <= 0.969\nmse = 0.078\nsamples = 17\nvalue = [[0.059]\n[0.0]\n[0.353]\n[0.176]\n[0.0]\n[0.118]\n[0.0]\n[0.118]\n[0.0]\n[0.176]]"] ;
541 -> 549 ;
550 [label="X[409] <= 0.847\nmse = 0.072\nsamples = 14\nvalue = [[0.071]\n[0.0]\n[0.429]\n[0.0]\n[0.0]\n[0.143]\n[0.0]\n[0.143]\n[0.0]\n[0.214]]"] ;
549 -> 550 ;
551 [label="X[344] <= 0.198\nmse = 0.049\nsamples = 9\nvalue = [[0.111]\n[0.0]\n[0.667]\n[0.0]\n[0.0]\n[0.222]\n[0.0]\n[0.0]\n[0.0]\n[0.0]]"] ;
550 -> 551 ;
552 [label="mse = 0.0\nsamples = 6\nvalue = [[0.0]\n[0.0]\n[1.0]\n[0.0]\n[0.0]\n[0.0]\n[0.0]\n[0.0]\n[0.0]\n[0.0]]"] ;
551 -> 552 ;
553 [label="X[458] <= 0.041\nmse = 0.044\nsamples = 3\nvalue = [[0.333]\n[0.0]\n[0.0]\n[0.0]\n[0.0]\n[0.667]\n[0.0]\n[0.0]\n[0.0]\n[0.0]]"] ;
551 -> 553 ;
554 [label="mse = 0.0\nsamples = 1\nvalue = [[1.0]\n[0.0]\n[0.0]\n[0.0]\n[0.0]\n[0.0]\n[0.0]\n[0.0]\n[0.0]\n[0.0]]"] ;
553 -> 554 ;
555 [label="mse = 0.0\nsamples = 2\nvalue = [[0.0]\n[0.0]\n[0.0]\n[0.0]\n[0.0]\n[1.0]\n[0.0]\n[0.0]\n[0.0]\n[0.0]]"] ;
553 -> 555 ;
556 [label="X[381] <= 0.963\nmse = 0.048\nsamples = 5\nvalue = [[0.0]\n[0.0]\n[0.0]\n[0.0]\n[0.0]\n[0.0]\n[0.0]\n[0.4]\n[0.0]\n[0.6]]"] ;
550 -> 556 ;
557 [label="mse = 0.0\nsamples = 3\nvalue = [[0.0]\n[0.0]\n[0.0]\n[0.0]\n[0.0]\n[0.0]\n[0.0]\n[0.0]\n[0.0]\n[1.0]]"] ;
556 -> 557 ;
558 [label="mse = 0.0\nsamples = 2\nvalue = [[0.0]\n[0.0]\n[0.0]\n[0.0]\n[0.0]\n[0.0]\n[0.0]\n[1.0]\n[0.0]\n[0.0]]"] ;
556 -> 558 ;
559 [label="mse = 0.0\nsamples = 3\nvalue = [[0.0]\n[0.0]\n[0.0]\n[1.0]\n[0.0]\n[0.0]\n[0.0]\n[0.0]\n[0.0]\n[0.0]]"] ;
549 -> 559 ;
560 [label="X[437] <= 0.004\nmse = 0.045\nsamples = 473\nvalue = [[0.093]\n[0.0]\n[0.004]\n[0.0]\n[0.093]\n[0.025]\n[0.023]\n[0.021]\n[0.008]\n[0.732]]"] ;
502 -> 560 ;
561 [label="X[541] <= 0.531\nmse = 0.059\nsamples = 74\nvalue = [[0.595]\n[0.0]\n[0.0]\n[0.0]\n[0.014]\n[0.135]\n[0.027]\n[0.041]\n[0.0]\n[0.189]]"] ;
560 -> 561 ;
562 [label="X[189] <= 0.076\nmse = 0.072\nsamples = 34\nvalue = [[0.176]\n[0.0]\n[0.0]\n[0.0]\n[0.029]\n[0.265]\n[0.029]\n[0.088]\n[0.0]\n[0.412]]"] ;
561 -> 562 ;
563 [label="X[415] <= 0.204\nmse = 0.064\nsamples = 26\nvalue = [[0.231]\n[0.0]\n[0.0]\n[0.0]\n[0.038]\n[0.038]\n[0.038]\n[0.115]\n[0.0]\n[0.538]]"] ;
562 -> 563 ;
564 [label="X[180] <= 0.033\nmse = 0.048\nsamples = 20\nvalue = [[0.05]\n[0.0]\n[0.0]\n[0.0]\n[0.05]\n[0.05]\n[0.0]\n[0.15]\n[0.0]\n[0.7]]"] ;
563 -> 564 ;
565 [label="X[231] <= 0.357\nmse = 0.073\nsamples = 7\nvalue = [[0.143]\n[0.0]\n[0.0]\n[0.0]\n[0.143]\n[0.143]\n[0.0]\n[0.429]\n[0.0]\n[0.143]]"] ;
564 -> 565 ;
566 [label="X[651] <= 0.127\nmse = 0.075\nsamples = 4\nvalue = [[0.25]\n[0.0]\n[0.0]\n[0.0]\n[0.25]\n[0.25]\n[0.0]\n[0.0]\n[0.0]\n[0.25]]"] ;
565 -> 566 ;
567 [label="X[155] <= 0.139\nmse = 0.067\nsamples = 3\nvalue = [[0.333]\n[0.0]\n[0.0]\n[0.0]\n[0.333]\n[0.0]\n[0.0]\n[0.0]\n[0.0]\n[0.333]]"] ;
566 -> 567 ;
568 [label="mse = 0.0\nsamples = 1\nvalue = [[0.0]\n[0.0]\n[0.0]\n[0.0]\n[0.0]\n[0.0]\n[0.0]\n[0.0]\n[0.0]\n[1.0]]"] ;
567 -> 568 ;
569 [label="X[657] <= 0.327\nmse = 0.05\nsamples = 2\nvalue = [[0.5]\n[0.0]\n[0.0]\n[0.0]\n[0.5]\n[0.0]\n[0.0]\n[0.0]\n[0.0]\n[0.0]]"] ;
567 -> 569 ;
570 [label="mse = 0.0\nsamples = 1\nvalue = [[0.0]\n[0.0]\n[0.0]\n[0.0]\n[1.0]\n[0.0]\n[0.0]\n[0.0]\n[0.0]\n[0.0]]"] ;
569 -> 570 ;
571 [label="mse = 0.0\nsamples = 1\nvalue = [[1.0]\n[0.0]\n[0.0]\n[0.0]\n[0.0]\n[0.0]\n[0.0]\n[0.0]\n[0.0]\n[0.0]]"] ;
569 -> 571 ;
572 [label="mse = 0.0\nsamples = 1\nvalue = [[0.0]\n[0.0]\n[0.0]\n[0.0]\n[0.0]\n[1.0]\n[0.0]\n[0.0]\n[0.0]\n[0.0]]"] ;
566 -> 572 ;
573 [label="mse = 0.0\nsamples = 3\nvalue = [[0.0]\n[0.0]\n[0.0]\n[0.0]\n[0.0]\n[0.0]\n[0.0]\n[1.0]\n[0.0]\n[0.0]]"] ;
565 -> 573 ;
574 [label="mse = 0.0\nsamples = 13\nvalue = [[0.0]\n[0.0]\n[0.0]\n[0.0]\n[0.0]\n[0.0]\n[0.0]\n[0.0]\n[0.0]\n[1.0]]"] ;
564 -> 574 ;
575 [label="X[286] <= 0.982\nmse = 0.028\nsamples = 6\nvalue = [[0.833]\n[0.0]\n[0.0]\n[0.0]\n[0.0]\n[0.0]\n[0.167]\n[0.0]\n[0.0]\n[0.0]]"] ;
563 -> 575 ;
576 [label="mse = 0.0\nsamples = 5\nvalue = [[1.0]\n[0.0]\n[0.0]\n[0.0]\n[0.0]\n[0.0]\n[0.0]\n[0.0]\n[0.0]\n[0.0]]"] ;
575 -> 576 ;
577 [label="mse = 0.0\nsamples = 1\nvalue = [[0.0]\n[0.0]\n[0.0]\n[0.0]\n[0.0]\n[0.0]\n[1.0]\n[0.0]\n[0.0]\n[0.0]]"] ;
575 -> 577 ;
578 [label="mse = 0.0\nsamples = 8\nvalue = [[0.0]\n[0.0]\n[0.0]\n[0.0]\n[0.0]\n[1.0]\n[0.0]\n[0.0]\n[0.0]\n[0.0]]"] ;
562 -> 578 ;
579 [label="X[491] <= 0.357\nmse = 0.01\nsamples = 40\nvalue = [[0.95]\n[0.0]\n[0.0]\n[0.0]\n[0.0]\n[0.025]\n[0.025]\n[0.0]\n[0.0]\n[0.0]]"] ;
561 -> 579 ;
580 [label="mse = 0.0\nsamples = 38\nvalue = [[1.0]\n[0.0]\n[0.0]\n[0.0]\n[0.0]\n[0.0]\n[0.0]\n[0.0]\n[0.0]\n[0.0]]"] ;
579 -> 580 ;
581 [label="X[547] <= 0.124\nmse = 0.05\nsamples = 2\nvalue = [[0.0]\n[0.0]\n[0.0]\n[0.0]\n[0.0]\n[0.5]\n[0.5]\n[0.0]\n[0.0]\n[0.0]]"] ;
579 -> 581 ;
582 [label="mse = 0.0\nsamples = 1\nvalue = [[0.0]\n[0.0]\n[0.0]\n[0.0]\n[0.0]\n[0.0]\n[1.0]\n[0.0]\n[0.0]\n[0.0]]"] ;
581 -> 582 ;
583 [label="mse = 0.0\nsamples = 1\nvalue = [[0.0]\n[0.0]\n[0.0]\n[0.0]\n[0.0]\n[1.0]\n[0.0]\n[0.0]\n[0.0]\n[0.0]]"] ;
581 -> 583 ;
584 [label="X[235] <= 0.129\nmse = 0.03\nsamples = 399\nvalue = [[0.0]\n[0.0]\n[0.005]\n[0.0]\n[0.108]\n[0.005]\n[0.023]\n[0.018]\n[0.01]\n[0.832]]"] ;
560 -> 584 ;
585 [label="X[468] <= 0.004\nmse = 0.053\nsamples = 92\nvalue = [[0.0]\n[0.0]\n[0.011]\n[0.0]\n[0.413]\n[0.011]\n[0.022]\n[0.0]\n[0.0]\n[0.543]]"] ;
584 -> 585 ;
586 [label="X[375] <= 0.28\nmse = 0.036\nsamples = 58\nvalue = [[0.0]\n[0.0]\n[0.017]\n[0.0]\n[0.19]\n[0.017]\n[0.0]\n[0.0]\n[0.0]\n[0.776]]"] ;
585 -> 586 ;
587 [label="X[156] <= 0.484\nmse = 0.024\nsamples = 52\nvalue = [[0.0]\n[0.0]\n[0.019]\n[0.0]\n[0.115]\n[0.0]\n[0.0]\n[0.0]\n[0.0]\n[0.865]]"] ;
586 -> 587 ;
588 [label="X[212] <= 0.055\nmse = 0.012\nsamples = 47\nvalue = [[0.0]\n[0.0]\n[0.0]\n[0.0]\n[0.064]\n[0.0]\n[0.0]\n[0.0]\n[0.0]\n[0.936]]"] ;
587 -> 588 ;
589 [label="X[634] <= 0.316\nmse = 0.044\nsamples = 3\nvalue = [[0.0]\n[0.0]\n[0.0]\n[0.0]\n[0.667]\n[0.0]\n[0.0]\n[0.0]\n[0.0]\n[0.333]]"] ;
588 -> 589 ;
590 [label="mse = 0.0\nsamples = 2\nvalue = [[0.0]\n[0.0]\n[0.0]\n[0.0]\n[1.0]\n[0.0]\n[0.0]\n[0.0]\n[0.0]\n[0.0]]"] ;
589 -> 590 ;
591 [label="mse = 0.0\nsamples = 1\nvalue = [[0.0]\n[0.0]\n[0.0]\n[0.0]\n[0.0]\n[0.0]\n[0.0]\n[0.0]\n[0.0]\n[1.0]]"] ;
589 -> 591 ;
592 [label="X[396] <= 0.084\nmse = 0.004\nsamples = 44\nvalue = [[0.0]\n[0.0]\n[0.0]\n[0.0]\n[0.023]\n[0.0]\n[0.0]\n[0.0]\n[0.0]\n[0.977]]"] ;
588 -> 592 ;
593 [label="mse = 0.0\nsamples = 43\nvalue = [[0.0]\n[0.0]\n[0.0]\n[0.0]\n[0.0]\n[0.0]\n[0.0]\n[0.0]\n[0.0]\n[1.0]]"] ;
592 -> 593 ;
594 [label="mse = 0.0\nsamples = 1\nvalue = [[0.0]\n[0.0]\n[0.0]\n[0.0]\n[1.0]\n[0.0]\n[0.0]\n[0.0]\n[0.0]\n[0.0]]"] ;
592 -> 594 ;
595 [label="X[185] <= 0.737\nmse = 0.056\nsamples = 5\nvalue = [[0.0]\n[0.0]\n[0.2]\n[0.0]\n[0.6]\n[0.0]\n[0.0]\n[0.0]\n[0.0]\n[0.2]]"] ;
587 -> 595 ;
596 [label="mse = 0.0\nsamples = 3\nvalue = [[0.0]\n[0.0]\n[0.0]\n[0.0]\n[1.0]\n[0.0]\n[0.0]\n[0.0]\n[0.0]\n[0.0]]"] ;
595 -> 596 ;
597 [label="X[546] <= 0.967\nmse = 0.05\nsamples = 2\nvalue = [[0.0]\n[0.0]\n[0.5]\n[0.0]\n[0.0]\n[0.0]\n[0.0]\n[0.0]\n[0.0]\n[0.5]]"] ;
595 -> 597 ;
598 [label="mse = 0.0\nsamples = 1\nvalue = [[0.0]\n[0.0]\n[1.0]\n[0.0]\n[0.0]\n[0.0]\n[0.0]\n[0.0]\n[0.0]\n[0.0]]"] ;
597 -> 598 ;
599 [label="mse = 0.0\nsamples = 1\nvalue = [[0.0]\n[0.0]\n[0.0]\n[0.0]\n[0.0]\n[0.0]\n[0.0]\n[0.0]\n[0.0]\n[1.0]]"] ;
597 -> 599 ;
600 [label="X[708] <= 0.018\nmse = 0.028\nsamples = 6\nvalue = [[0.0]\n[0.0]\n[0.0]\n[0.0]\n[0.833]\n[0.167]\n[0.0]\n[0.0]\n[0.0]\n[0.0]]"] ;
586 -> 600 ;
601 [label="mse = 0.0\nsamples = 5\nvalue = [[0.0]\n[0.0]\n[0.0]\n[0.0]\n[1.0]\n[0.0]\n[0.0]\n[0.0]\n[0.0]\n[0.0]]"] ;
600 -> 601 ;
602 [label="mse = 0.0\nsamples = 1\nvalue = [[0.0]\n[0.0]\n[0.0]\n[0.0]\n[0.0]\n[1.0]\n[0.0]\n[0.0]\n[0.0]\n[0.0]]"] ;
600 -> 602 ;
603 [label="X[411] <= 0.716\nmse = 0.034\nsamples = 34\nvalue = [[0.0]\n[0.0]\n[0.0]\n[0.0]\n[0.794]\n[0.0]\n[0.059]\n[0.0]\n[0.0]\n[0.147]]"] ;
585 -> 603 ;
604 [label="mse = 0.0\nsamples = 27\nvalue = [[0.0]\n[0.0]\n[0.0]\n[0.0]\n[1.0]\n[0.0]\n[0.0]\n[0.0]\n[0.0]\n[0.0]]"] ;
603 -> 604 ;
605 [label="X[543] <= 0.498\nmse = 0.041\nsamples = 7\nvalue = [[0.0]\n[0.0]\n[0.0]\n[0.0]\n[0.0]\n[0.0]\n[0.286]\n[0.0]\n[0.0]\n[0.714]]"] ;
603 -> 605 ;
606 [label="mse = 0.0\nsamples = 5\nvalue = [[0.0]\n[0.0]\n[0.0]\n[0.0]\n[0.0]\n[0.0]\n[0.0]\n[0.0]\n[0.0]\n[1.0]]"] ;
605 -> 606 ;
607 [label="mse = 0.0\nsamples = 2\nvalue = [[0.0]\n[0.0]\n[0.0]\n[0.0]\n[0.0]\n[0.0]\n[1.0]\n[0.0]\n[0.0]\n[0.0]]"] ;
605 -> 607 ;
608 [label="X[126] <= 0.125\nmse = 0.015\nsamples = 307\nvalue = [[0.0]\n[0.0]\n[0.003]\n[0.0]\n[0.016]\n[0.003]\n[0.023]\n[0.023]\n[0.013]\n[0.919]]"] ;
584 -> 608 ;
609 [label="X[248] <= 0.039\nmse = 0.012\nsamples = 300\nvalue = [[0.0]\n[0.0]\n[0.003]\n[0.0]\n[0.01]\n[0.003]\n[0.007]\n[0.023]\n[0.013]\n[0.94]]"] ;
608 -> 609 ;
610 [label="X[388] <= 0.125\nmse = 0.009\nsamples = 295\nvalue = [[0.0]\n[0.0]\n[0.003]\n[0.0]\n[0.007]\n[0.0]\n[0.007]\n[0.02]\n[0.007]\n[0.956]]"] ;
609 -> 610 ;
611 [label="X[161] <= 0.543\nmse = 0.007\nsamples = 293\nvalue = [[0.0]\n[0.0]\n[0.003]\n[0.0]\n[0.007]\n[0.0]\n[0.0]\n[0.02]\n[0.007]\n[0.962]]"] ;
610 -> 611 ;
612 [label="X[295] <= 0.998\nmse = 0.007\nsamples = 292\nvalue = [[0.0]\n[0.0]\n[0.0]\n[0.0]\n[0.007]\n[0.0]\n[0.0]\n[0.021]\n[0.007]\n[0.966]]"] ;
611 -> 612 ;
613 [label="X[229] <= 0.765\nmse = 0.006\nsamples = 291\nvalue = [[0.0]\n[0.0]\n[0.0]\n[0.0]\n[0.003]\n[0.0]\n[0.0]\n[0.021]\n[0.007]\n[0.969]]"] ;
612 -> 613 ;
614 [label="X[179] <= 0.994\nmse = 0.005\nsamples = 290\nvalue = [[0.0]\n[0.0]\n[0.0]\n[0.0]\n[0.003]\n[0.0]\n[0.0]\n[0.017]\n[0.007]\n[0.972]]"] ;
613 -> 614 ;
615 [label="X[413] <= 0.998\nmse = 0.004\nsamples = 283\nvalue = [[0.0]\n[0.0]\n[0.0]\n[0.0]\n[0.004]\n[0.0]\n[0.0]\n[0.011]\n[0.007]\n[0.979]]"] ;
614 -> 615 ;
616 [label="X[211] <= 0.153\nmse = 0.004\nsamples = 282\nvalue = [[0.0]\n[0.0]\n[0.0]\n[0.0]\n[0.004]\n[0.0]\n[0.0]\n[0.007]\n[0.007]\n[0.982]]"] ;
615 -> 616 ;
617 [label="X[544] <= 0.508\nmse = 0.041\nsamples = 8\nvalue = [[0.0]\n[0.0]\n[0.0]\n[0.0]\n[0.125]\n[0.0]\n[0.0]\n[0.0]\n[0.125]\n[0.75]]"] ;
616 -> 617 ;
618 [label="mse = 0.0\nsamples = 6\nvalue = [[0.0]\n[0.0]\n[0.0]\n[0.0]\n[0.0]\n[0.0]\n[0.0]\n[0.0]\n[0.0]\n[1.0]]"] ;
617 -> 618 ;
619 [label="X[299] <= 0.412\nmse = 0.05\nsamples = 2\nvalue = [[0.0]\n[0.0]\n[0.0]\n[0.0]\n[0.5]\n[0.0]\n[0.0]\n[0.0]\n[0.5]\n[0.0]]"] ;
617 -> 619 ;
620 [label="mse = 0.0\nsamples = 1\nvalue = [[0.0]\n[0.0]\n[0.0]\n[0.0]\n[1.0]\n[0.0]\n[0.0]\n[0.0]\n[0.0]\n[0.0]]"] ;
619 -> 620 ;
621 [label="mse = 0.0\nsamples = 1\nvalue = [[0.0]\n[0.0]\n[0.0]\n[0.0]\n[0.0]\n[0.0]\n[0.0]\n[0.0]\n[1.0]\n[0.0]]"] ;
619 -> 621 ;
622 [label="X[599] <= 0.286\nmse = 0.002\nsamples = 274\nvalue = [[0.0]\n[0.0]\n[0.0]\n[0.0]\n[0.0]\n[0.0]\n[0.0]\n[0.007]\n[0.004]\n[0.989]]"] ;
616 -> 622 ;
623 [label="X[231] <= 0.131\nmse = 0.001\nsamples = 270\nvalue = [[0.0]\n[0.0]\n[0.0]\n[0.0]\n[0.0]\n[0.0]\n[0.0]\n[0.007]\n[0.0]\n[0.993]]"] ;
622 -> 623 ;
624 [label="mse = 0.0\nsamples = 239\nvalue = [[0.0]\n[0.0]\n[0.0]\n[0.0]\n[0.0]\n[0.0]\n[0.0]\n[0.0]\n[0.0]\n[1.0]]"] ;
623 -> 624 ;
625 [label="X[341] <= 0.012\nmse = 0.012\nsamples = 31\nvalue = [[0.0]\n[0.0]\n[0.0]\n[0.0]\n[0.0]\n[0.0]\n[0.0]\n[0.065]\n[0.0]\n[0.935]]"] ;
623 -> 625 ;
626 [label="mse = 0.0\nsamples = 2\nvalue = [[0.0]\n[0.0]\n[0.0]\n[0.0]\n[0.0]\n[0.0]\n[0.0]\n[1.0]\n[0.0]\n[0.0]]"] ;
625 -> 626 ;
627 [label="mse = 0.0\nsamples = 29\nvalue = [[0.0]\n[0.0]\n[0.0]\n[0.0]\n[0.0]\n[0.0]\n[0.0]\n[0.0]\n[0.0]\n[1.0]]"] ;
625 -> 627 ;
628 [label="X[235] <= 0.551\nmse = 0.037\nsamples = 4\nvalue = [[0.0]\n[0.0]\n[0.0]\n[0.0]\n[0.0]\n[0.0]\n[0.0]\n[0.0]\n[0.25]\n[0.75]]"] ;
622 -> 628 ;
629 [label="mse = 0.0\nsamples = 3\nvalue = [[0.0]\n[0.0]\n[0.0]\n[0.0]\n[0.0]\n[0.0]\n[0.0]\n[0.0]\n[0.0]\n[1.0]]"] ;
628 -> 629 ;
630 [label="mse = 0.0\nsamples = 1\nvalue = [[0.0]\n[0.0]\n[0.0]\n[0.0]\n[0.0]\n[0.0]\n[0.0]\n[0.0]\n[1.0]\n[0.0]]"] ;
628 -> 630 ;
631 [label="mse = 0.0\nsamples = 1\nvalue = [[0.0]\n[0.0]\n[0.0]\n[0.0]\n[0.0]\n[0.0]\n[0.0]\n[1.0]\n[0.0]\n[0.0]]"] ;
615 -> 631 ;
632 [label="X[545] <= 0.661\nmse = 0.041\nsamples = 7\nvalue = [[0.0]\n[0.0]\n[0.0]\n[0.0]\n[0.0]\n[0.0]\n[0.0]\n[0.286]\n[0.0]\n[0.714]]"] ;
614 -> 632 ;
633 [label="mse = 0.0\nsamples = 2\nvalue = [[0.0]\n[0.0]\n[0.0]\n[0.0]\n[0.0]\n[0.0]\n[0.0]\n[1.0]\n[0.0]\n[0.0]]"] ;
632 -> 633 ;
634 [label="mse = 0.0\nsamples = 5\nvalue = [[0.0]\n[0.0]\n[0.0]\n[0.0]\n[0.0]\n[0.0]\n[0.0]\n[0.0]\n[0.0]\n[1.0]]"] ;
632 -> 634 ;
635 [label="mse = 0.0\nsamples = 1\nvalue = [[0.0]\n[0.0]\n[0.0]\n[0.0]\n[0.0]\n[0.0]\n[0.0]\n[1.0]\n[0.0]\n[0.0]]"] ;
613 -> 635 ;
636 [label="mse = 0.0\nsamples = 1\nvalue = [[0.0]\n[0.0]\n[0.0]\n[0.0]\n[1.0]\n[0.0]\n[0.0]\n[0.0]\n[0.0]\n[0.0]]"] ;
612 -> 636 ;
637 [label="mse = 0.0\nsamples = 1\nvalue = [[0.0]\n[0.0]\n[1.0]\n[0.0]\n[0.0]\n[0.0]\n[0.0]\n[0.0]\n[0.0]\n[0.0]]"] ;
611 -> 637 ;
638 [label="mse = 0.0\nsamples = 2\nvalue = [[0.0]\n[0.0]\n[0.0]\n[0.0]\n[0.0]\n[0.0]\n[1.0]\n[0.0]\n[0.0]\n[0.0]]"] ;
610 -> 638 ;
639 [label="X[656] <= 0.731\nmse = 0.072\nsamples = 5\nvalue = [[0.0]\n[0.0]\n[0.0]\n[0.0]\n[0.2]\n[0.2]\n[0.0]\n[0.2]\n[0.4]\n[0.0]]"] ;
609 -> 639 ;
640 [label="mse = 0.0\nsamples = 2\nvalue = [[0.0]\n[0.0]\n[0.0]\n[0.0]\n[0.0]\n[0.0]\n[0.0]\n[0.0]\n[1.0]\n[0.0]]"] ;
639 -> 640 ;
641 [label="X[571] <= 0.255\nmse = 0.067\nsamples = 3\nvalue = [[0.0]\n[0.0]\n[0.0]\n[0.0]\n[0.333]\n[0.333]\n[0.0]\n[0.333]\n[0.0]\n[0.0]]"] ;
639 -> 641 ;
642 [label="X[661] <= 0.478\nmse = 0.05\nsamples = 2\nvalue = [[0.0]\n[0.0]\n[0.0]\n[0.0]\n[0.0]\n[0.5]\n[0.0]\n[0.5]\n[0.0]\n[0.0]]"] ;
641 -> 642 ;
643 [label="mse = 0.0\nsamples = 1\nvalue = [[0.0]\n[0.0]\n[0.0]\n[0.0]\n[0.0]\n[0.0]\n[0.0]\n[1.0]\n[0.0]\n[0.0]]"] ;
642 -> 643 ;
644 [label="mse = 0.0\nsamples = 1\nvalue = [[0.0]\n[0.0]\n[0.0]\n[0.0]\n[0.0]\n[1.0]\n[0.0]\n[0.0]\n[0.0]\n[0.0]]"] ;
642 -> 644 ;
645 [label="mse = 0.0\nsamples = 1\nvalue = [[0.0]\n[0.0]\n[0.0]\n[0.0]\n[1.0]\n[0.0]\n[0.0]\n[0.0]\n[0.0]\n[0.0]]"] ;
641 -> 645 ;
646 [label="X[634] <= 0.376\nmse = 0.041\nsamples = 7\nvalue = [[0.0]\n[0.0]\n[0.0]\n[0.0]\n[0.286]\n[0.0]\n[0.714]\n[0.0]\n[0.0]\n[0.0]]"] ;
608 -> 646 ;
647 [label="mse = 0.0\nsamples = 5\nvalue = [[0.0]\n[0.0]\n[0.0]\n[0.0]\n[0.0]\n[0.0]\n[1.0]\n[0.0]\n[0.0]\n[0.0]]"] ;
646 -> 647 ;
648 [label="mse = 0.0\nsamples = 2\nvalue = [[0.0]\n[0.0]\n[0.0]\n[0.0]\n[1.0]\n[0.0]\n[0.0]\n[0.0]\n[0.0]\n[0.0]]"] ;
646 -> 648 ;
649 [label="X[516] <= 0.057\nmse = 0.084\nsamples = 2441\nvalue = [[0.003]\n[0.101]\n[0.051]\n[0.117]\n[0.059]\n[0.147]\n[0.047]\n[0.043]\n[0.3]\n[0.131]]"] ;
3 -> 649 ;
650 [label="X[353] <= 0.002\nmse = 0.078\nsamples = 1084\nvalue = [[0.004]\n[0.026]\n[0.009]\n[0.243]\n[0.094]\n[0.31]\n[0.006]\n[0.018]\n[0.064]\n[0.227]]"] ;
649 -> 650 ;
651 [label="X[322] <= 0.049\nmse = 0.059\nsamples = 542\nvalue = [[0.007]\n[0.052]\n[0.004]\n[0.232]\n[0.033]\n[0.594]\n[0.007]\n[0.002]\n[0.026]\n[0.042]]"] ;
650 -> 651 ;
652 [label="X[355] <= 0.049\nmse = 0.041\nsamples = 386\nvalue = [[0.005]\n[0.041]\n[0.005]\n[0.057]\n[0.039]\n[0.762]\n[0.005]\n[0.003]\n[0.031]\n[0.052]]"] ;
651 -> 652 ;
653 [label="X[656] <= 0.012\nmse = 0.032\nsamples = 358\nvalue = [[0.003]\n[0.045]\n[0.006]\n[0.056]\n[0.017]\n[0.821]\n[0.006]\n[0.0]\n[0.02]\n[0.028]]"] ;
652 -> 653 ;
654 [label="X[461] <= 0.159\nmse = 0.072\nsamples = 76\nvalue = [[0.0]\n[0.211]\n[0.013]\n[0.079]\n[0.079]\n[0.461]\n[0.026]\n[0.0]\n[0.066]\n[0.066]]"] ;
653 -> 654 ;
655 [label="X[351] <= 0.302\nmse = 0.054\nsamples = 49\nvalue = [[0.0]\n[0.02]\n[0.02]\n[0.102]\n[0.082]\n[0.653]\n[0.02]\n[0.0]\n[0.0]\n[0.102]]"] ;
654 -> 655 ;
656 [label="X[382] <= 0.169\nmse = 0.04\nsamples = 42\nvalue = [[0.0]\n[0.024]\n[0.0]\n[0.095]\n[0.0]\n[0.762]\n[0.024]\n[0.0]\n[0.0]\n[0.095]]"] ;
655 -> 656 ;
657 [label="X[175] <= 0.61\nmse = 0.028\nsamples = 38\nvalue = [[0.0]\n[0.026]\n[0.0]\n[0.079]\n[0.0]\n[0.842]\n[0.0]\n[0.0]\n[0.0]\n[0.053]]"] ;
656 -> 657 ;
658 [label="X[299] <= 0.071\nmse = 0.021\nsamples = 36\nvalue = [[0.0]\n[0.028]\n[0.0]\n[0.028]\n[0.0]\n[0.889]\n[0.0]\n[0.0]\n[0.0]\n[0.056]]"] ;
657 -> 658 ;
659 [label="X[122] <= 0.229\nmse = 0.012\nsamples = 33\nvalue = [[0.0]\n[0.03]\n[0.0]\n[0.03]\n[0.0]\n[0.939]\n[0.0]\n[0.0]\n[0.0]\n[0.0]]"] ;
658 -> 659 ;
660 [label="X[322] <= 0.014\nmse = 0.006\nsamples = 32\nvalue = [[0.0]\n[0.0]\n[0.0]\n[0.031]\n[0.0]\n[0.969]\n[0.0]\n[0.0]\n[0.0]\n[0.0]]"] ;
659 -> 660 ;
661 [label="mse = 0.0\nsamples = 31\nvalue = [[0.0]\n[0.0]\n[0.0]\n[0.0]\n[0.0]\n[1.0]\n[0.0]\n[0.0]\n[0.0]\n[0.0]]"] ;
660 -> 661 ;
662 [label="mse = 0.0\nsamples = 1\nvalue = [[0.0]\n[0.0]\n[0.0]\n[1.0]\n[0.0]\n[0.0]\n[0.0]\n[0.0]\n[0.0]\n[0.0]]"] ;
660 -> 662 ;
663 [label="mse = 0.0\nsamples = 1\nvalue = [[0.0]\n[1.0]\n[0.0]\n[0.0]\n[0.0]\n[0.0]\n[0.0]\n[0.0]\n[0.0]\n[0.0]]"] ;
659 -> 663 ;
664 [label="X[379] <= 0.769\nmse = 0.044\nsamples = 3\nvalue = [[0.0]\n[0.0]\n[0.0]\n[0.0]\n[0.0]\n[0.333]\n[0.0]\n[0.0]\n[0.0]\n[0.667]]"] ;
658 -> 664 ;
665 [label="mse = 0.0\nsamples = 2\nvalue = [[0.0]\n[0.0]\n[0.0]\n[0.0]\n[0.0]\n[0.0]\n[0.0]\n[0.0]\n[0.0]\n[1.0]]"] ;
664 -> 665 ;
666 [label="mse = 0.0\nsamples = 1\nvalue = [[0.0]\n[0.0]\n[0.0]\n[0.0]\n[0.0]\n[1.0]\n[0.0]\n[0.0]\n[0.0]\n[0.0]]"] ;
664 -> 666 ;
667 [label="mse = 0.0\nsamples = 2\nvalue = [[0.0]\n[0.0]\n[0.0]\n[1.0]\n[0.0]\n[0.0]\n[0.0]\n[0.0]\n[0.0]\n[0.0]]"] ;
657 -> 667 ;
668 [label="X[379] <= 0.586\nmse = 0.063\nsamples = 4\nvalue = [[0.0]\n[0.0]\n[0.0]\n[0.25]\n[0.0]\n[0.0]\n[0.25]\n[0.0]\n[0.0]\n[0.5]]"] ;
656 -> 668 ;
669 [label="mse = 0.0\nsamples = 2\nvalue = [[0.0]\n[0.0]\n[0.0]\n[0.0]\n[0.0]\n[0.0]\n[0.0]\n[0.0]\n[0.0]\n[1.0]]"] ;
668 -> 669 ;
670 [label="X[604] <= 0.994\nmse = 0.05\nsamples = 2\nvalue = [[0.0]\n[0.0]\n[0.0]\n[0.5]\n[0.0]\n[0.0]\n[0.5]\n[0.0]\n[0.0]\n[0.0]]"] ;
668 -> 670 ;
671 [label="mse = 0.0\nsamples = 1\nvalue = [[0.0]\n[0.0]\n[0.0]\n[0.0]\n[0.0]\n[0.0]\n[1.0]\n[0.0]\n[0.0]\n[0.0]]"] ;
670 -> 671 ;
672 [label="mse = 0.0\nsamples = 1\nvalue = [[0.0]\n[0.0]\n[0.0]\n[1.0]\n[0.0]\n[0.0]\n[0.0]\n[0.0]\n[0.0]\n[0.0]]"] ;
670 -> 672 ;
673 [label="X[211] <= 0.184\nmse = 0.061\nsamples = 7\nvalue = [[0.0]\n[0.0]\n[0.143]\n[0.143]\n[0.571]\n[0.0]\n[0.0]\n[0.0]\n[0.0]\n[0.143]]"] ;
655 -> 673 ;
674 [label="mse = 0.0\nsamples = 4\nvalue = [[0.0]\n[0.0]\n[0.0]\n[0.0]\n[1.0]\n[0.0]\n[0.0]\n[0.0]\n[0.0]\n[0.0]]"] ;
673 -> 674 ;
675 [label="X[603] <= 0.5\nmse = 0.067\nsamples = 3\nvalue = [[0.0]\n[0.0]\n[0.333]\n[0.333]\n[0.0]\n[0.0]\n[0.0]\n[0.0]\n[0.0]\n[0.333]]"] ;
673 -> 675 ;
676 [label="X[460] <= 0.286\nmse = 0.05\nsamples = 2\nvalue = [[0.0]\n[0.0]\n[0.5]\n[0.5]\n[0.0]\n[0.0]\n[0.0]\n[0.0]\n[0.0]\n[0.0]]"] ;
675 -> 676 ;
677 [label="mse = 0.0\nsamples = 1\nvalue = [[0.0]\n[0.0]\n[0.0]\n[1.0]\n[0.0]\n[0.0]\n[0.0]\n[0.0]\n[0.0]\n[0.0]]"] ;
676 -> 677 ;
678 [label="mse = 0.0\nsamples = 1\nvalue = [[0.0]\n[0.0]\n[1.0]\n[0.0]\n[0.0]\n[0.0]\n[0.0]\n[0.0]\n[0.0]\n[0.0]]"] ;
676 -> 678 ;
679 [label="mse = 0.0\nsamples = 1\nvalue = [[0.0]\n[0.0]\n[0.0]\n[0.0]\n[0.0]\n[0.0]\n[0.0]\n[0.0]\n[0.0]\n[1.0]]"] ;
675 -> 679 ;
680 [label="X[296] <= 0.39\nmse = 0.064\nsamples = 27\nvalue = [[0.0]\n[0.556]\n[0.0]\n[0.037]\n[0.074]\n[0.111]\n[0.037]\n[0.0]\n[0.185]\n[0.0]]"] ;
654 -> 680 ;
681 [label="X[377] <= 0.429\nmse = 0.05\nsamples = 22\nvalue = [[0.0]\n[0.682]\n[0.0]\n[0.045]\n[0.091]\n[0.136]\n[0.045]\n[0.0]\n[0.0]\n[0.0]]"] ;
680 -> 681 ;
682 [label="X[262] <= 0.341\nmse = 0.061\nsamples = 6\nvalue = [[0.0]\n[0.0]\n[0.0]\n[0.167]\n[0.333]\n[0.5]\n[0.0]\n[0.0]\n[0.0]\n[0.0]]"] ;
681 -> 682 ;
683 [label="X[684] <= 0.047\nmse = 0.044\nsamples = 3\nvalue = [[0.0]\n[0.0]\n[0.0]\n[0.333]\n[0.667]\n[0.0]\n[0.0]\n[0.0]\n[0.0]\n[0.0]]"] ;
682 -> 683 ;
684 [label="mse = 0.0\nsamples = 2\nvalue = [[0.0]\n[0.0]\n[0.0]\n[0.0]\n[1.0]\n[0.0]\n[0.0]\n[0.0]\n[0.0]\n[0.0]]"] ;
683 -> 684 ;
685 [label="mse = 0.0\nsamples = 1\nvalue = [[0.0]\n[0.0]\n[0.0]\n[1.0]\n[0.0]\n[0.0]\n[0.0]\n[0.0]\n[0.0]\n[0.0]]"] ;
683 -> 685 ;
686 [label="mse = 0.0\nsamples = 3\nvalue = [[0.0]\n[0.0]\n[0.0]\n[0.0]\n[0.0]\n[1.0]\n[0.0]\n[0.0]\n[0.0]\n[0.0]]"] ;
682 -> 686 ;
687 [label="X[542] <= 0.404\nmse = 0.012\nsamples = 16\nvalue = [[0.0]\n[0.938]\n[0.0]\n[0.0]\n[0.0]\n[0.0]\n[0.062]\n[0.0]\n[0.0]\n[0.0]]"] ;
681 -> 687 ;
688 [label="mse = 0.0\nsamples = 15\nvalue = [[0.0]\n[1.0]\n[0.0]\n[0.0]\n[0.0]\n[0.0]\n[0.0]\n[0.0]\n[0.0]\n[0.0]]"] ;
